{"learner":{"attributes":{},"feature_names":["cap-diameter","cap-shape","cap-surface","cap-color","does-bruise-or-bleed","gill-attachment","gill-spacing","gill-color","stem-height","stem-width","stem-root","stem-surface","stem-color","veil-type","veil-color","has-ring","ring-type","spore-print-color","habitat","season"],"feature_types":["float","c","c","c","c","c","c","c","float","float","c","c","c","c","c","c","c","c","c","c"],"gradient_booster":{"model":{"gbtree_model_param":{"num_parallel_tree":"1","num_trees":"100"},"iteration_indptr":[0,1,2,3,4,5,6,7,8,9,10,11,12,13,14,15,16,17,18,19,20,21,22,23,24,25,26,27,28,29,30,31,32,33,34,35,36,37,38,39,40,41,42,43,44,45,46,47,48,49,50,51,52,53,54,55,56,57,58,59,60,61,62,63,64,65,66,67,68,69,70,71,72,73,74,75,76,77,78,79,80,81,82,83,84,85,86,87,88,89,90,91,92,93,94,95,96,97,98,99,100],"tree_info":[0,0,0,0,0,0,0,0,0,0,0,0,0,0,0,0,0,0,0,0,0,0,0,0,0,0,0,0,0,0,0,0,0,0,0,0,0,0,0,0,0,0,0,0,0,0,0,0,0,0,0,0,0,0,0,0,0,0,0,0,0,0,0,0,0,0,0,0,0,0,0,0,0,0,0,0,0,0,0,0,0,0,0,0,0,0,0,0,0,0,0,0,0,0,0,0,0,0,0,0],"trees":[{"base_weights":[5.9938925E-9,-1.3589773E-1,1.0163646E-1,-2.0693421E-1,2.2899905E-1,1.5552194E-1,-2.431976E-1,-3.67324E-2,-3.1823757E-1,5.5435324E-1,-1.04219265E-1,1.907467E-1,-1.3332391E-1,4.3656945E-1,-3.0344683E-1,1.20188266E-1,-3.3785105E-1,-1.5379818E-1,-3.876803E-1,1.6647993E-1,-6.67117E-2,1.6620144E-1,-3.3963203E-1,3.7676546E-1,1.04938276E-1,1.6596419E-1,-1.2981737E-1,3.1279314E-1,-3.5282034E-1,2.7833667E-1,-2.425415E-1,1.6423047E-1,-3.6502072E-1,1.6600221E-1,-2.2559792E-1,-9.828125E-2,-4.1150182E-1,1.6530503E-1,-1.3330331E-1,4.555167E-1,1.7847607E-2,1.451042E-1,-3.906109E-1,1.6572672E-1,-1.3130558E-1,4.7870222E-2,-4.0102044E-1,1.3947415E-1,-2.1175954E-2,8.1182346E-2,-1.123021E-1,1.638899E-1,-1.1702455E-1,9.81212E-2,-1.08016856E-1,1.6573104E-1,-1.3306376E-1,1.5026647E-1,-1.2531713E-1,1.5608415E-1,7.089766E-2,1.5186149E-1,-9.276347E-2,5.3118348E-2,-1.3324407E-1,8.789548E-2,-1.3330065E-1,1.6560249E-1,-1.326653E-1,7.210587E-3,-1.3200277E-1],"categories":[1,1,7,8,1,2,4,6,8,10,12,0,1,2,4,5,6,1,3,0,1,2,4,6,7,1,2,4,5,4,5,6,7,8,9,10,11,2,5,6,1,2,4,5,8,10,8,0,1,2,3,5,6,0,1,6,7,9,11,3,4,5,6,7,8,9,10,11,0,1,2,3,4,5,7,0,1,3,4,5,7,1,5,7,10,11,1,1,3,6,0,1,2,3,4,5,6,8,9,0,1,2,3,4,5,7,5,8,10,11,0,1,2,3,4,6,7,0,0,2,4,1,2,3,4,0,1,2,3,4,7,1,2,3,4,5,7,8,9,11,0,2,3,0,1,3,4,5,6,7,9,10,2,5,0,2,3,4,5,7,8,9,10,11],"categories_nodes":[1,2,3,4,5,6,7,8,9,10,11,13,14,15,16,17,18,22,23,24,27,28,29,30,32,34,35,36,39,40,41,42,45,46],"categories_segments":[0,1,4,11,17,19,25,29,36,37,40,46,47,53,59,68,75,81,86,87,89,90,99,106,110,117,118,121,125,131,140,143,152,154],"categories_sizes":[1,3,7,6,2,6,4,7,1,3,6,1,6,6,9,7,6,5,1,2,1,9,7,4,7,1,3,4,6,9,3,9,2,10],"default_left":[0,1,1,1,1,1,0,1,0,1,1,0,0,1,0,1,1,0,0,0,0,0,1,0,1,0,0,1,0,1,1,0,0,0,1,1,0,0,0,1,1,1,0,0,0,1,1,0,0,0,0,0,0,0,0,0,0,0,0,0,0,0,0,0,0,0,0,0,0,0,0],"id":0,"left_children":[1,3,5,7,9,11,13,15,17,19,21,23,-1,25,27,29,31,33,35,-1,-1,-1,37,39,41,-1,-1,43,45,47,49,-1,51,-1,53,55,57,-1,-1,59,61,63,65,-1,-1,67,69,-1,-1,-1,-1,-1,-1,-1,-1,-1,-1,-1,-1,-1,-1,-1,-1,-1,-1,-1,-1,-1,-1,-1,-1],"loss_changes":[6.748209E2,5.4192554E2,5.194293E2,3.3149E2,3.694242E2,5.1096423E2,1.548621E2,3.270226E2,1.2075452E2,8.998413E-1,2.611313E2,3.6445215E2,0E0,3.1470089E1,1.0571878E2,2.6107892E2,5.722934E1,1.5970245E2,5.1236694E1,0E0,0E0,0E0,1.15982834E2,2.037276E2,3.1111935E2,0E0,0E0,4.6639626E1,6.2092224E1,2.0633817E2,9.356939E1,0E0,5.2764893E1,0E0,2.122009E2,1.2763288E2,3.9220215E1,0E0,0E0,8.37876E1,2.0747536E2,2.7231366E2,4.3172943E1,0E0,0E0,8.5731E1,4.7556793E1,0E0,0E0,0E0,0E0,0E0,0E0,0E0,0E0,0E0,0E0,0E0,0E0,0E0,0E0,0E0,0E0,0E0,0E0,0E0,0E0,0E0,0E0,0E0,0E0],"parents":[2147483647,0,0,1,1,2,2,3,3,4,4,5,5,6,6,7,7,8,8,9,9,10,10,11,11,13,13,14,14,15,15,16,16,17,17,18,18,22,22,23,23,24,24,27,27,28,28,29,29,30,30,32,32,34,34,35,35,36,36,39,39,40,40,41,41,42,42,45,45,46,46],"right_children":[2,4,6,8,10,12,14,16,18,20,22,24,-1,26,28,30,32,34,36,-1,-1,-1,38,40,42,-1,-1,44,46,48,50,-1,52,-1,54,56,58,-1,-1,60,62,64,66,-1,-1,68,70,-1,-1,-1,-1,-1,-1,-1,-1,-1,-1,-1,-1,-1,-1,-1,-1,-1,-1,-1,-1,-1,-1,-1,-1],"split_conditions":[8.22E0,NaN,NaN,NaN,NaN,NaN,NaN,NaN,NaN,NaN,NaN,NaN,-1.3332391E-1,NaN,NaN,NaN,NaN,NaN,NaN,1.6647993E-1,-6.67117E-2,1.6620144E-1,NaN,NaN,NaN,1.6596419E-1,-1.2981737E-1,NaN,NaN,NaN,NaN,1.6423047E-1,NaN,1.6600221E-1,NaN,NaN,NaN,1.6530503E-1,-1.3330331E-1,NaN,NaN,NaN,NaN,1.6572672E-1,-1.3130558E-1,NaN,NaN,1.3947415E-1,-2.1175954E-2,8.1182346E-2,-1.123021E-1,1.638899E-1,-1.1702455E-1,9.81212E-2,-1.08016856E-1,1.6573104E-1,-1.3306376E-1,1.5026647E-1,-1.2531713E-1,1.5608415E-1,7.089766E-2,1.5186149E-1,-9.276347E-2,5.3118348E-2,-1.3324407E-1,8.789548E-2,-1.3330065E-1,1.6560249E-1,-1.326653E-1,7.210587E-3,-1.3200277E-1],"split_indices":[9,6,3,12,2,10,11,18,2,3,1,2,0,3,5,3,7,16,11,0,0,0,7,5,11,0,0,12,2,11,7,0,11,0,4,1,10,0,0,11,3,14,2,0,0,5,7,0,0,0,0,0,0,0,0,0,0,0,0,0,0,0,0,0,0,0,0,0,0,0,0],"split_type":[0,1,1,1,1,1,1,1,1,1,1,1,0,1,1,1,1,1,1,0,0,0,1,1,1,0,0,1,1,1,1,0,1,0,1,1,1,0,0,1,1,1,1,0,0,1,1,0,0,0,0,0,0,0,0,0,0,0,0,0,0,0,0,0,0,0,0,0,0,0,0],"sum_hessian":[4.8855E4,2.0904E4,2.7951E4,1.7498E4,3.406E3,2.4174E4,3.777E3,6.919E3,1.0579E4,1.723E3,1.683E3,2.2834E4,1.34E3,3.07E2,3.47E3,4.549E3,2.37E3,3.142E3,7.437E3,1.722E3,1E0,4.43E2,1.24E3,7.207E3,1.5627E4,2.71E2,3.6E1,2.57E2,3.213E3,3.168E3,1.381E3,7E1,2.3E3,2.89E2,2.853E3,5.66E2,6.871E3,1.3E2,1.11E3,5.91E3,1.297E3,1.4456E4,1.171E3,1.95E2,6.2E1,3.45E2,2.868E3,2.064E3,1.104E3,2.82E2,1.099E3,6.1E1,2.239E3,5.58E2,2.295E3,1.96E2,3.7E2,4.6E1,6.825E3,4.561E3,1.349E3,5.2E2,7.77E2,1.3713E4,7.43E2,8.5E1,1.086E3,1.7E2,1.75E2,2.41E2,2.627E3],"tree_param":{"num_deleted":"0","num_feature":"20","num_nodes":"71","size_leaf_vector":"1"}},{"base_weights":[1.67085E-5,9.702786E-2,-7.103376E-2,1.591524E-1,-1.8207112E-1,1.4116658E-1,-1.502683E-1,1.9412243E-1,-3.1713414E-1,2.628709E-1,-3.0796465E-1,3.9950067E-1,-5.8710553E-2,6.483573E-2,-2.2081003E-1,2.3044588E-1,-1.8765464E-1,1.2166234E-1,-4.651028E-1,-9.943549E-2,1.22249775E-1,-3.2379452E-2,-3.8536477E-1,4.1623712E-1,-5.2375734E-1,-2.887838E-1,6.878913E-2,4.9331638E-1,-2.8341213E-2,-4.3927036E-2,-2.542357E-1,2.4977207E-1,-4.1855773E-1,1.2265651E-1,-2.4638902E-1,-3.9143544E-1,-5.0560623E-1,1.2428243E-1,-3.6637452E-1,-3.4600738E-1,-4.4583282E-1,4.332332E-1,-9.2196934E-2,-8.7762944E-2,-1.7633018E-1,-5.2575663E-2,-3.108596E-1,3.5411057E-1,-2.694402E-1,5.1817334E-1,1.1618174E-1,1.5891525E-1,-1.9519392E-1,3.1600463E-1,-2.4507774E-1,-1.6617003E-1,-3.1821677E-1,8.4809616E-2,-3.5157226E-2,-1.7356403E-1,-1.0942329E-1,1.1553158E-1,-8.912015E-2,-1.12139165E-1,-1.5392986E-1,-1.7243877E-1,-1.4908978E-1,-1.0035586E-1,-1.2611519E-1,-2.469894E-2,-1.1044171E-1,-6.669702E-2,-1.3977201E-1,1.3123101E-1,-1.6737373E-1,1.2882891E-1,-9.6297175E-2,1.2794976E-1,-9.445275E-2,1.2663633E-1,-9.276363E-2,1.4520124E-1,-9.4492294E-2,1.9257164E-1,1.4891824E-1,-8.866354E-2,8.6635366E-2,-8.714467E-2,9.626168E-2,1.229557E-1,-1.14711486E-1,1.2604442E-1,-8.067733E-2,2.6750378E-2,-7.972826E-2,-2.2879051E-2,-9.818136E-2],"categories":[1,2,4,6,7,8,9,10,12,0,1,3,0,1,5,6,2,5,0,1,4,5,6,7,8,9,10,1,2,4,5,6,7,0,1,3,4,5,6,7,8,9,11,1,8,5,7,10,11,0,3,1,6,7,1,4,6,8,9,12,7,1,2,3,5,6,5,10,0,2,6,1,5,10,1,3,5,6,2,3,5,1,3,4,6,7,11,0,1,2,3,4,6,7,8,9,0,1,4,5,6,8,9,10,6,9,10,11,1,4,5,6,8,9,2,3,4,0,1,2,3,4,6,7,7,3,1,3,7,3,1,3,11,0,1,0,2,3,4,5,6,7,0,1,2,3,5,7,4,5,8,9,11,0,1,3,4,5,6,7,9,11],"categories_nodes":[0,1,2,3,4,5,6,7,8,9,11,13,14,15,16,18,21,22,23,24,25,26,27,28,29,30,31,34,35,38,39,41,45,46,47,49,53,54,55,56],"categories_segments":[0,9,12,16,18,27,33,43,45,49,50,51,54,60,61,66,68,71,74,75,78,81,87,96,104,108,114,117,124,125,126,129,130,133,134,135,141,142,148,153],"categories_sizes":[9,3,4,2,9,6,10,2,4,1,1,3,6,1,5,2,3,3,1,3,3,6,9,8,4,6,3,7,1,1,3,1,3,1,1,6,1,6,5,9],"default_left":[1,1,0,1,0,0,1,1,1,1,0,1,0,1,1,1,0,0,1,0,0,1,1,1,1,1,1,1,0,1,0,1,0,0,0,1,0,0,1,0,0,1,0,0,0,1,1,1,0,0,0,0,0,1,0,1,1,0,0,0,0,0,0,0,0,0,0,0,0,0,0,0,0,0,0,0,0,0,0,0,0,0,0,0,0,0,0,0,0,0,0,0,0,0,0,0,0],"id":1,"left_children":[1,3,5,7,9,11,13,15,17,19,21,23,25,27,29,31,33,-1,35,-1,-1,37,39,41,43,45,47,49,51,53,55,57,59,-1,61,63,65,-1,67,69,71,73,-1,-1,-1,75,77,79,81,83,-1,85,87,89,91,93,95,-1,-1,-1,-1,-1,-1,-1,-1,-1,-1,-1,-1,-1,-1,-1,-1,-1,-1,-1,-1,-1,-1,-1,-1,-1,-1,-1,-1,-1,-1,-1,-1,-1,-1,-1,-1,-1,-1,-1,-1],"loss_changes":[3.3675604E2,3.5816394E2,4.7419824E2,2.8146042E2,2.1075458E2,3.9596124E2,3.1160852E2,2.1831702E2,1.2380348E2,7.1478424E1,6.2528076E1,5.1905212E1,1.2686122E2,2.0251114E2,9.141882E1,1.8038177E2,4.802946E1,0E0,2.6665344E0,0E0,0E0,9.622389E1,5.2932434E0,4.0543213E1,7.16053E-1,8.024399E0,2.6866626E2,2.1874695E0,1.302258E2,1.7811032E2,7.322986E1,1.6868573E2,3.370552E0,0E0,3.999009E1,5.4855347E-1,8.2611084E-2,0E0,4.9423218E-1,8.087036E0,3.9299622E0,1.3622009E1,0E0,0E0,0E0,1.7345037E1,4.2752075E0,6.825102E1,4.3860092E1,1.6512451E0,0E0,1.16001495E2,1.0847508E2,5.796386E1,2.514547E1,1.3924919E2,1.6475769E1,0E0,0E0,0E0,0E0,0E0,0E0,0E0,0E0,0E0,0E0,0E0,0E0,0E0,0E0,0E0,0E0,0E0,0E0,0E0,0E0,0E0,0E0,0E0,0E0,0E0,0E0,0E0,0E0,0E0,0E0,0E0,0E0,0E0,0E0,0E0,0E0,0E0,0E0,0E0,0E0],"parents":[2147483647,0,0,1,1,2,2,3,3,4,4,5,5,6,6,7,7,8,8,9,9,10,10,11,11,12,12,13,13,14,14,15,15,16,16,18,18,21,21,22,22,23,23,24,24,25,25,26,26,27,27,28,28,29,29,30,30,31,31,32,32,34,34,35,35,36,36,38,38,39,39,40,40,41,41,45,45,46,46,47,47,48,48,49,49,51,51,52,52,53,53,54,54,55,55,56,56],"right_children":[2,4,6,8,10,12,14,16,18,20,22,24,26,28,30,32,34,-1,36,-1,-1,38,40,42,44,46,48,50,52,54,56,58,60,-1,62,64,66,-1,68,70,72,74,-1,-1,-1,76,78,80,82,84,-1,86,88,90,92,94,96,-1,-1,-1,-1,-1,-1,-1,-1,-1,-1,-1,-1,-1,-1,-1,-1,-1,-1,-1,-1,-1,-1,-1,-1,-1,-1,-1,-1,-1,-1,-1,-1,-1,-1,-1,-1,-1,-1,-1,-1],"split_conditions":[NaN,NaN,NaN,NaN,NaN,NaN,NaN,NaN,NaN,NaN,3.51E0,NaN,4.16E0,NaN,NaN,NaN,NaN,1.2166234E-1,NaN,-9.943549E-2,1.22249775E-1,NaN,NaN,NaN,NaN,NaN,NaN,NaN,NaN,NaN,NaN,NaN,8.22E0,1.2265651E-1,NaN,NaN,2.93E0,1.2428243E-1,NaN,NaN,4.04E0,NaN,-9.2196934E-2,-8.7762944E-2,-1.7633018E-1,NaN,NaN,NaN,4.48E0,NaN,1.1618174E-1,3.69E0,1.434E1,NaN,NaN,NaN,NaN,8.4809616E-2,-3.5157226E-2,-1.7356403E-1,-1.0942329E-1,1.1553158E-1,-8.912015E-2,-1.12139165E-1,-1.5392986E-1,-1.7243877E-1,-1.4908978E-1,-1.0035586E-1,-1.2611519E-1,-2.469894E-2,-1.1044171E-1,-6.669702E-2,-1.3977201E-1,1.3123101E-1,-1.6737373E-1,1.2882891E-1,-9.6297175E-2,1.2794976E-1,-9.445275E-2,1.2663633E-1,-9.276363E-2,1.4520124E-1,-9.4492294E-2,1.9257164E-1,1.4891824E-1,-8.866354E-2,8.6635366E-2,-8.714467E-2,9.626168E-2,1.229557E-1,-1.14711486E-1,1.2604442E-1,-8.067733E-2,2.6750378E-2,-7.972826E-2,-2.2879051E-2,-9.818136E-2],"split_indices":[12,1,5,2,2,2,7,3,7,15,9,19,8,16,12,16,5,0,3,0,0,5,2,10,3,1,7,3,2,3,2,11,9,0,11,7,0,0,7,11,9,3,0,0,0,3,18,10,0,5,0,8,9,11,11,7,7,0,0,0,0,0,0,0,0,0,0,0,0,0,0,0,0,0,0,0,0,0,0,0,0,0,0,0,0,0,0,0,0,0,0,0,0,0,0,0,0],"split_type":[1,1,1,1,1,1,1,1,1,1,0,1,0,1,1,1,1,0,1,0,0,1,1,1,1,1,1,1,1,1,1,1,0,0,1,1,0,0,1,1,0,1,0,0,0,1,1,1,0,1,0,0,0,1,1,1,1,0,0,0,0,0,0,0,0,0,0,0,0,0,0,0,0,0,0,0,0,0,0,0,0,0,0,0,0,0,0,0,0,0,0,0,0,0,0,0,0],"sum_hessian":[4.8855E4,2.0654E4,2.8201E4,1.6894E4,3.76E3,7.667E3,2.0534E4,1.5739E4,1.155E3,8.29E2,2.931E3,3.344E3,4.323E3,5.071E3,1.5463E4,1.4372E4,1.367E3,1.96E2,9.59E2,1.62E2,6.67E2,6.43E2,2.288E3,3.285E3,5.9E1,1.541E3,2.782E3,9.05E2,4.166E3,2.458E3,1.3005E4,1.3957E4,4.15E2,1.22E2,1.245E3,3.44E2,6.15E2,2.75E2,3.68E2,1.39E3,8.98E2,3.21E3,7.5E1,1.4E1,4.5E1,1.32E2,1.409E3,1.509E3,1.273E3,7.3E2,1.75E2,1.963E3,2.203E3,8.81E2,1.577E3,5.474E3,7.531E3,1.2808E4,1.149E3,1.02E2,3.13E2,9.2E1,1.153E3,3.04E2,4E1,6.1E1,5.54E2,2.36E2,1.32E2,1.08E2,1.282E3,7.5E1,8.23E2,3.197E3,1.3E1,4.7E1,8.5E1,7E0,1.402E3,1.369E3,1.4E2,7.2E1,1.201E3,1.05E2,6.25E2,4.36E2,1.527E3,1.86E3,3.43E2,7.77E2,1.04E2,5.4E1,1.523E3,1.536E3,3.938E3,2.72E2,7.259E3],"tree_param":{"num_deleted":"0","num_feature":"20","num_nodes":"97","size_leaf_vector":"1"}},{"base_weights":[-6.079403E-6,2.8077696E-2,-1.4542875E-1,1.492278E-1,-1.8678412E-2,2.2527099E-1,-2.0694467E-1,1.9970173E-1,-6.7841925E-2,4.0774353E-2,-1.4654614E-1,3.812941E-1,-2.4526578E-1,1.6101041E-1,-2.4411868E-1,2.4245717E-1,7.5516575E-3,4.346101E-1,-2.0964919E-1,1.9054299E-3,3.137528E-1,9.877269E-2,-1.9641577E-1,3.9474663E-1,7.917206E-2,-6.722776E-2,-1.3084552E-1,-3.0886054E-1,4.006757E-1,-2.054408E-1,-3.4817997E-1,-2.4551992E-1,2.6137772E-1,2.014734E-1,-3.9408144E-1,1.6325627E-1,3.8936776E-1,1.12865694E-1,-2.5783312E-1,2.728819E-2,-3.4528926E-1,3.4359968E-1,-3.8823205E-1,2.678983E-1,-2.786027E-1,-1.6953649E-1,-4.2924815E-1,1.2281596E-1,1.1088678E-1,-1.0772969E-1,-8.224271E-2,1.2473453E-1,1.1087082E-1,1.1042884E-1,-2.2274575E-1,-2.3919515E-1,-3.850164E-1,-6.704982E-2,-1.292047E-1,8.415654E-2,-7.649226E-2,-7.236419E-2,9.4567336E-2,1.2561311E-1,-1.461768E-1,1.2469942E-1,9.324885E-2,-5.3307824E-2,-1.18334115E-1,3.297626E-2,-2.2278942E-2,-8.307625E-2,-1.7415437E-1,1.1131448E-1,-7.535008E-2,-7.575617E-2,-1.6154219E-1,-6.6408075E-2,9.9523656E-2,-6.746328E-2,-1.12298965E-1,5.7945173E-2,-6.2463935E-2,1.195074E-1,-1.3556862E-1,-1.2582331E-2,-7.4304454E-2,-7.661265E-2,-6.327044E-2,-1.0925918E-1,-1.3481484E-1],"categories":[0,1,2,4,7,0,1,6,0,1,2,3,5,6,1,6,7,0,4,5,8,9,2,5,2,3,5,8,9,10,11,4,5,0,1,3,5,7,8,9,10,11,0,1,3,4,7,8,9,10,0,2,3,5,0,2,5,0,1,2,4,5,6,7,1,2,3,4,3,4,3,6,9,6,12,0,1,2,3,5,0,0,1,3,4,5,6,4,5,6,10,11,1,3,2,4,0,1,2,3,5,6,7,8,9,1,3,7,4,5,6,7,11,3,3,11,0,3,5,0,0,1,2,3,4,5,0,2,5,6,7,8,9,10,6,11],"categories_nodes":[0,1,2,3,4,5,6,8,10,11,14,16,17,18,19,20,21,23,28,29,30,32,34,36,38,39,40,41,42,43,44,45,46,54,56],"categories_segments":[0,5,8,14,17,22,24,31,33,42,50,54,57,64,68,70,73,75,80,81,87,92,94,96,105,108,113,114,115,116,117,119,120,126,134],"categories_sizes":[5,3,6,3,5,2,7,2,9,8,4,3,7,4,2,3,2,5,1,6,5,2,2,9,3,5,1,1,1,1,2,1,6,8,2],"default_left":[1,0,0,1,1,1,1,0,1,0,1,1,0,0,0,0,0,0,0,1,1,1,0,1,0,0,0,0,1,0,1,0,1,0,1,0,1,0,1,1,1,1,1,1,1,0,0,0,0,0,0,0,0,0,0,0,1,0,0,0,0,0,0,0,0,0,0,0,0,0,0,0,0,0,0,0,0,0,0,0,0,0,0,0,0,0,0,0,0,0,0],"id":2,"left_children":[1,3,5,7,9,11,13,15,17,19,21,23,25,27,29,31,33,35,37,39,41,43,45,47,-1,-1,-1,49,51,53,55,57,59,61,63,-1,65,-1,67,69,71,73,75,77,79,81,83,-1,-1,-1,-1,-1,-1,-1,85,87,89,-1,-1,-1,-1,-1,-1,-1,-1,-1,-1,-1,-1,-1,-1,-1,-1,-1,-1,-1,-1,-1,-1,-1,-1,-1,-1,-1,-1,-1,-1,-1,-1,-1,-1],"loss_changes":[1.9953284E2,2.319587E2,1.8038014E2,1.24948944E2,2.2462497E2,8.275838E1,9.281964E1,7.600763E1,1.5342401E2,2.1401074E2,1.1474942E2,1.231781E0,1.0379715E0,7.0280876E1,2.4725708E1,6.99379E1,1.3131628E2,2.1379776E0,4.7494225E1,1.5561632E2,5.280687E1,1.0123543E2,4.8704956E1,1.2711334E-1,0E0,0E0,0E0,2.6957893E-1,4.0405273E-2,4.4685028E1,6.6042633E0,1.0576382E0,7.209427E1,5.7330975E1,4.1780617E1,0E0,5.709419E-1,0E0,1.6921661E1,1.3808957E2,1.9185883E1,3.9470306E1,1.9641466E0,3.427881E1,2.4410095E0,9.807846E1,1.52868805E1,0E0,0E0,0E0,0E0,0E0,0E0,0E0,1.9660202E1,1.4024925E-1,1.5046997E0,0E0,0E0,0E0,0E0,0E0,0E0,0E0,0E0,0E0,0E0,0E0,0E0,0E0,0E0,0E0,0E0,0E0,0E0,0E0,0E0,0E0,0E0,0E0,0E0,0E0,0E0,0E0,0E0,0E0,0E0,0E0,0E0,0E0,0E0],"parents":[2147483647,0,0,1,1,2,2,3,3,4,4,5,5,6,6,7,7,8,8,9,9,10,10,11,11,12,12,13,13,14,14,15,15,16,16,17,17,18,18,19,19,20,20,21,21,22,22,23,23,27,27,28,28,29,29,30,30,31,31,32,32,33,33,34,34,36,36,38,38,39,39,40,40,41,41,42,42,43,43,44,44,45,45,46,46,54,54,55,55,56,56],"right_children":[2,4,6,8,10,12,14,16,18,20,22,24,26,28,30,32,34,36,38,40,42,44,46,48,-1,-1,-1,50,52,54,56,58,60,62,64,-1,66,-1,68,70,72,74,76,78,80,82,84,-1,-1,-1,-1,-1,-1,-1,86,88,90,-1,-1,-1,-1,-1,-1,-1,-1,-1,-1,-1,-1,-1,-1,-1,-1,-1,-1,-1,-1,-1,-1,-1,-1,-1,-1,-1,-1,-1,-1,-1,-1,-1,-1],"split_conditions":[NaN,NaN,NaN,NaN,NaN,NaN,NaN,1.125E1,NaN,9.87E0,NaN,NaN,4.16E0,3.98E0,NaN,1.48E0,NaN,NaN,NaN,NaN,NaN,NaN,2.386E1,NaN,7.917206E-2,-6.722776E-2,-1.3084552E-1,9.7E-1,NaN,NaN,NaN,4.16E0,NaN,8.39E0,NaN,1.6325627E-1,NaN,1.12865694E-1,NaN,NaN,NaN,NaN,NaN,NaN,NaN,NaN,NaN,1.2281596E-1,1.1088678E-1,-1.0772969E-1,-8.224271E-2,1.2473453E-1,1.1087082E-1,1.1042884E-1,NaN,8.32E0,NaN,-6.704982E-2,-1.292047E-1,8.415654E-2,-7.649226E-2,-7.236419E-2,9.4567336E-2,1.2561311E-1,-1.461768E-1,1.2469942E-1,9.324885E-2,-5.3307824E-2,-1.18334115E-1,3.297626E-2,-2.2278942E-2,-8.307625E-2,-1.7415437E-1,1.1131448E-1,-7.535008E-2,-7.575617E-2,-1.6154219E-1,-6.6408075E-2,9.9523656E-2,-6.746328E-2,-1.12298965E-1,5.7945173E-2,-6.2463935E-2,1.195074E-1,-1.3556862E-1,-1.2582331E-2,-7.4304454E-2,-7.661265E-2,-6.327044E-2,-1.0925918E-1,-1.3481484E-1],"split_indices":[11,5,5,7,2,1,7,0,5,0,7,3,8,0,16,0,2,11,10,10,7,12,9,1,0,0,0,0,4,5,3,8,10,8,5,0,2,0,2,7,16,10,12,15,1,6,17,0,0,0,0,0,0,0,2,9,3,0,0,0,0,0,0,0,0,0,0,0,0,0,0,0,0,0,0,0,0,0,0,0,0,0,0,0,0,0,0,0,0,0,0],"split_type":[1,1,1,1,1,1,1,0,1,0,1,1,0,0,1,0,1,1,1,1,1,1,0,1,0,0,0,0,1,1,1,0,1,0,1,0,1,0,1,1,1,1,1,1,1,1,1,0,0,0,0,0,0,0,1,0,1,0,0,0,0,0,0,0,0,0,0,0,0,0,0,0,0,0,0,0,0,0,0,0,0,0,0,0,0,0,0,0,0,0,0],"sum_hessian":[4.8855E4,4.0948E4,7.907E3,1.1402E4,2.9546E4,1.125E3,6.782E3,9.251E3,2.151E3,2.0169E4,9.377E3,8.45E2,2.8E2,6.22E2,6.16E3,7.567E3,1.684E3,4.73E2,1.678E3,1.7656E4,2.513E3,1.584E3,7.793E3,7.56E2,8.9E1,2.54E2,2.6E1,2.1E2,4.12E2,4.493E3,1.667E3,2.82E2,7.285E3,1.136E3,5.48E2,1.35E2,3.38E2,1.27E2,1.551E3,1.6454E4,1.202E3,2.411E3,1.02E2,1.094E3,4.9E2,6.988E3,8.05E2,4.68E2,2.88E2,8.2E1,1.28E2,2.69E2,1.43E2,1.31E2,4.362E3,4.23E2,1.244E3,2.54E2,2.8E1,7.025E3,2.6E2,2.32E2,9.04E2,5.6E1,4.92E2,2.5E2,8.8E1,9.79E2,5.72E2,9.072E3,7.382E3,9.33E2,2.69E2,2.305E3,1.06E2,5.5E1,4.7E1,1.26E2,9.68E2,3.16E2,1.74E2,6.73E2,6.315E3,2.1E1,7.84E2,5.29E2,3.833E3,2.64E2,1.59E2,9.45E2,2.99E2],"tree_param":{"num_deleted":"0","num_feature":"20","num_nodes":"91","size_leaf_vector":"1"}},{"base_weights":[-1.8166229E-5,2.7000392E-2,-8.894565E-2,5.9868477E-2,-5.9135653E-2,2.4525238E-2,-1.5545395E-1,7.56545E-2,-1.7463186E-1,1.493781E-1,-1.3204929E-1,1.7505503E-1,-7.488754E-2,-1.7490987E-1,7.345522E-2,1.2496502E-1,-5.7183187E-3,-1.6247438E-1,-2.7225623E-1,2.4780627E-1,-1.7094518E-1,7.508318E-2,-1.6297677E-1,2.952616E-1,-4.6299517E-2,2.834759E-1,-1.08896635E-1,-1.1115439E-1,-2.3863176E-1,2.6010498E-1,-2.3680031E-1,1.4293201E-1,-1.7631897E-1,1.4414464E-1,-1.14182085E-1,-1.5059775E-1,-5.9462655E-2,-4.593609E-2,-3.1200913E-1,2.6231042E-1,-1.3275252E-1,9.339076E-2,-2.2974473E-1,2.6666173E-1,-2.0913549E-1,9.832763E-2,-1.6950907E-1,5.356251E-1,2.608301E-1,2.7600327E-1,-1.9074832E-1,3.4605086E-1,-2.6753768E-1,4.2924872E-1,-1.3084736E-1,7.506271E-3,-1.4599477E-1,6.996566E-2,-2.6808408E-1,1.23932235E-1,2.4560754E-1,-5.62712E-2,-7.58555E-2,8.817511E-3,6.319212E-2,8.008801E-2,-8.21125E-2,7.248642E-2,-1.3461177E-2,2.248114E-2,-6.33303E-2,-4.321046E-2,-6.560489E-2,-6.721664E-2,-1.0580002E-1,8.98521E-2,5.8432028E-2,-2.2017235E-2,-4.8123714E-2,-4.7280543E-2,-8.668853E-2,1.600895E-1,6.410892E-2,-4.6246503E-2,-1.2192927E-1,-3.2926835E-2,-6.3120484E-2,1.8616153E-1,1.3362312E-1,8.597918E-2,-1.3276634E-1,1.829976E-1,5.4393582E-2,-6.942002E-2,3.792447E-2,1.3565604E-1,5.7117857E-2,-4.081031E-2,-9.178458E-2,1.4534675E-1,1.0776924E-1,-1.3253301E-2,-6.566705E-2,1.119288E-1,-3.2964133E-2,4.9361918E-2,-4.978681E-2,-8.648336E-2,7.658574E-2,-7.5048134E-2,-1.2136265E-1,8.2712784E-2,6.2384397E-2],"categories":[1,3,6,7,8,9,0,4,5,8,1,2,3,4,5,6,9,10,1,2,3,0,1,3,5,6,2,4,5,6,7,8,9,12,1,1,4,5,6,8,9,11,1,7,0,2,5,0,1,2,3,4,5,7,1,8,0,1,2,6,7,3,4,11,12,1,3,5,7,1,3,6,7,10,12,5,6,3,7,1,0,5,8,0,4,5,0,1,2,3,4,5,1,5,6,8,1,3,6,7,8,0,1,4,5,6,7,8,9,10,0,1,2,3,4,6,7,0,1,2,3,4,5,6,7,8,9,10,1,10,0,1,0,1,4,5,0,1,2,3,5,11,10,0,1,2,3,6,7,9,10,1,6,4,5,1,2,3,4,5,6,3,2,0,1,2,3,4,5,7,8,9,10,11,10,0,2,3,4,9,10,11,3,5,9,10,11,1,6,7,8,10,5,0,1,2,3,4,5,7,8,10,11],"categories_nodes":[0,1,2,3,4,5,6,7,8,9,10,11,12,13,14,15,16,17,18,19,20,21,22,24,25,26,27,28,29,30,32,33,34,35,38,39,40,46,47,48,50,51,52,54,55,56,58,60],"categories_segments":[0,6,10,18,21,26,34,35,42,44,47,54,56,61,65,66,69,75,77,79,80,83,86,92,95,96,101,110,117,128,130,132,136,141,142,143,151,153,155,161,162,163,174,175,182,187,192,193],"categories_sizes":[6,4,8,3,5,8,1,7,2,3,7,2,5,4,1,3,6,2,2,1,3,3,6,3,1,5,9,7,11,2,2,4,5,1,1,8,2,2,6,1,1,11,1,7,5,5,1,10],"default_left":[1,1,0,1,0,1,1,1,1,1,0,1,0,1,1,1,1,1,1,1,1,1,0,0,1,1,1,0,0,1,1,0,1,1,0,1,0,0,1,1,1,0,0,0,0,0,1,1,1,0,0,1,1,0,1,1,1,0,1,0,1,0,0,0,0,0,0,0,0,0,0,0,0,0,0,0,0,0,0,0,0,0,0,0,0,0,0,0,0,0,0,0,0,0,0,0,0,0,0,0,0,0,0,0,0,0,0,0,0,0,0,0,0],"id":3,"left_children":[1,3,5,7,9,11,13,15,17,19,21,23,25,27,29,31,33,35,37,39,41,43,45,47,49,51,53,55,57,59,61,63,65,67,69,71,-1,-1,73,75,77,-1,79,81,83,-1,85,87,89,91,93,95,97,99,101,103,105,107,109,-1,111,-1,-1,-1,-1,-1,-1,-1,-1,-1,-1,-1,-1,-1,-1,-1,-1,-1,-1,-1,-1,-1,-1,-1,-1,-1,-1,-1,-1,-1,-1,-1,-1,-1,-1,-1,-1,-1,-1,-1,-1,-1,-1,-1,-1,-1,-1,-1,-1,-1,-1,-1,-1],"loss_changes":[1.17388336E2,1.0609152E2,8.592362E1,1.0041789E2,1.5737593E2,6.2984077E1,3.198108E1,1.019713E2,1.9864922E0,8.460271E1,4.9140488E1,4.4555904E1,3.092648E1,2.685176E1,3.2664433E1,8.568315E1,1.5589903E2,6.1694336E-1,8.4259224E-1,1.1361183E1,1.7964123E1,5.4342625E1,2.1446762E1,8.839836E0,2.7520836E1,7.6781025E0,2.7414345E1,1.3681107E1,3.0084885E1,6.793251E-1,1.2009621E-1,1.148009E2,3.8538113E1,7.420667E1,1.0199965E2,4.814663E-1,0E0,0E0,4.2162132E-1,4.908188E0,1.1301434E-1,0E0,2.3596478E0,8.313492E0,4.2980022E0,0E0,1.6069458E1,7.577667E-1,1.7362968E1,5.6769285E0,5.28969E0,3.1850452E0,7.4557066E-2,1.7792892E-1,1.697614E1,3.2313354E1,1.5883465E1,1.9260227E1,7.285187E0,0E0,3.099594E-1,0E0,0E0,0E0,0E0,0E0,0E0,0E0,0E0,0E0,0E0,0E0,0E0,0E0,0E0,0E0,0E0,0E0,0E0,0E0,0E0,0E0,0E0,0E0,0E0,0E0,0E0,0E0,0E0,0E0,0E0,0E0,0E0,0E0,0E0,0E0,0E0,0E0,0E0,0E0,0E0,0E0,0E0,0E0,0E0,0E0,0E0,0E0,0E0,0E0,0E0,0E0,0E0],"parents":[2147483647,0,0,1,1,2,2,3,3,4,4,5,5,6,6,7,7,8,8,9,9,10,10,11,11,12,12,13,13,14,14,15,15,16,16,17,17,18,18,19,19,20,20,21,21,22,22,23,23,24,24,25,25,26,26,27,27,28,28,29,29,30,30,31,31,32,32,33,33,34,34,35,35,38,38,39,39,40,40,42,42,43,43,44,44,46,46,47,47,48,48,49,49,50,50,51,51,52,52,53,53,54,54,55,55,56,56,57,57,58,58,60,60],"right_children":[2,4,6,8,10,12,14,16,18,20,22,24,26,28,30,32,34,36,38,40,42,44,46,48,50,52,54,56,58,60,62,64,66,68,70,72,-1,-1,74,76,78,-1,80,82,84,-1,86,88,90,92,94,96,98,100,102,104,106,108,110,-1,112,-1,-1,-1,-1,-1,-1,-1,-1,-1,-1,-1,-1,-1,-1,-1,-1,-1,-1,-1,-1,-1,-1,-1,-1,-1,-1,-1,-1,-1,-1,-1,-1,-1,-1,-1,-1,-1,-1,-1,-1,-1,-1,-1,-1,-1,-1,-1,-1,-1,-1,-1,-1],"split_conditions":[NaN,NaN,NaN,NaN,NaN,NaN,NaN,NaN,NaN,NaN,NaN,NaN,NaN,NaN,NaN,NaN,NaN,NaN,NaN,NaN,NaN,NaN,NaN,7.74E0,NaN,NaN,NaN,NaN,NaN,NaN,NaN,4.48E0,NaN,NaN,NaN,NaN,-5.9462655E-2,-4.593609E-2,NaN,NaN,NaN,9.339076E-2,4.16E0,1.84E0,3.71E0,9.832763E-2,NaN,NaN,NaN,4.34E0,NaN,NaN,NaN,9.87E0,NaN,NaN,NaN,1.09E0,NaN,1.23932235E-1,NaN,-5.62712E-2,-7.58555E-2,8.817511E-3,6.319212E-2,8.008801E-2,-8.21125E-2,7.248642E-2,-1.3461177E-2,2.248114E-2,-6.33303E-2,-4.321046E-2,-6.560489E-2,-6.721664E-2,-1.0580002E-1,8.98521E-2,5.8432028E-2,-2.2017235E-2,-4.8123714E-2,-4.7280543E-2,-8.668853E-2,1.600895E-1,6.410892E-2,-4.6246503E-2,-1.2192927E-1,-3.2926835E-2,-6.3120484E-2,1.8616153E-1,1.3362312E-1,8.597918E-2,-1.3276634E-1,1.829976E-1,5.4393582E-2,-6.942002E-2,3.792447E-2,1.3565604E-1,5.7117857E-2,-4.081031E-2,-9.178458E-2,1.4534675E-1,1.0776924E-1,-1.3253301E-2,-6.566705E-2,1.119288E-1,-3.2964133E-2,4.9361918E-2,-4.978681E-2,-8.648336E-2,7.658574E-2,-7.5048134E-2,-1.2136265E-1,8.2712784E-2,6.2384397E-2],"split_indices":[3,2,2,10,5,12,6,7,11,1,11,3,11,12,3,16,12,5,2,10,2,1,17,9,5,3,3,2,11,7,7,0,18,1,5,7,0,0,7,2,7,0,8,0,0,0,3,5,12,0,6,3,7,0,7,7,12,0,1,0,3,0,0,0,0,0,0,0,0,0,0,0,0,0,0,0,0,0,0,0,0,0,0,0,0,0,0,0,0,0,0,0,0,0,0,0,0,0,0,0,0,0,0,0,0,0,0,0,0,0,0,0,0],"split_type":[1,1,1,1,1,1,1,1,1,1,1,1,1,1,1,1,1,1,1,1,1,1,1,0,1,1,1,1,1,1,1,0,1,1,1,1,0,0,1,1,1,0,0,0,0,0,1,1,1,0,1,1,1,0,1,1,1,0,1,0,1,0,0,0,0,0,0,0,0,0,0,0,0,0,0,0,0,0,0,0,0,0,0,0,0,0,0,0,0,0,0,0,0,0,0,0,0,0,0,0,0,0,0,0,0,0,0,0,0,0,0,0,0],"sum_hessian":[4.8855E4,3.7471E4,1.1384E4,2.7122E4,1.0349E4,4.207E3,7.177E3,2.5412E4,1.71E3,2.681E3,7.668E3,1.673E3,2.534E3,6.615E3,5.62E2,1.5823E4,9.589E3,1.523E3,1.87E2,2.051E3,6.3E2,9.96E2,6.672E3,1.084E3,5.89E2,2.19E2,2.315E3,3.308E3,3.307E3,3.51E2,2.11E2,1.4933E4,8.9E2,4.026E3,5.563E3,1.147E3,3.76E2,4.8E1,1.39E2,1.976E3,7.5E1,6.8E1,5.62E2,5.95E2,4.01E2,8.7E1,6.585E3,1.34E2,9.5E2,1.82E2,4.07E2,1.97E2,2.2E1,9E1,2.225E3,7.51E2,2.557E3,2.88E2,3.019E3,2.8E1,3.23E2,5.5E1,1.56E2,5.579E3,9.354E3,1.6E2,7.3E2,2.656E3,1.37E3,1.885E3,3.678E3,1.049E3,9.8E1,4.6E1,9.3E1,1.272E3,7.04E2,2.5E1,5E1,2.55E2,3.07E2,9.7E1,4.98E2,3.15E2,8.6E1,2.677E3,3.908E3,6.6E1,6.8E1,9.17E2,3.3E1,3.9E1,1.43E2,3.61E2,4.6E1,1.16E2,8.1E1,6E0,1.6E1,4.7E1,4.3E1,1.122E3,1.103E3,1.82E2,5.69E2,1.54E2,2.403E3,9.8E1,1.9E2,2.671E3,3.48E2,1.76E2,1.47E2],"tree_param":{"num_deleted":"0","num_feature":"20","num_nodes":"113","size_leaf_vector":"1"}},{"base_weights":[-2.089334E-6,2.1518212E-2,-6.65697E-2,3.8829736E-2,-7.862663E-2,-5.622583E-3,-1.2439144E-1,5.2436043E-2,-1.1019834E-1,-9.4295055E-2,1.9215405E-1,8.939245E-2,-1.1516932E-1,-3.835314E-2,-1.6414598E-1,7.957054E-2,-3.3099074E-2,1.7056009E-1,-1.5048516E-1,-1.5471799E-2,-1.8290788E-1,2.5061557E-1,3.8872045E-2,2.2218855E-1,-1.4434127E-2,1.7554273E-1,-1.5253837E-1,1.2006591E-1,-1.4548579E-1,-7.321195E-2,-1.7833185E-1,9.680552E-2,-4.401612E-2,6.623817E-2,-1.4324936E-1,2.1174528E-1,-3.3062764E-2,-9.7802624E-2,-2.1752894E-1,8.663807E-2,-1.4254968E-1,-1.5096645E-1,-2.606414E-1,9.011864E-2,2.0614877E-1,2.3968469E-1,-2.6321954E-1,1.09469E-1,-1.3565785E-1,2.4190694E-1,-1.8017638E-1,-1.7511885E-1,5.588477E-2,-2.2646101E-1,2.1239096E-1,-1.2939638E-1,-2.0700128E-1,3.944831E-1,-1.6937588E-1,1.0045914E-1,-1.8409304E-1,5.0008215E-2,1.8789992E-2,2.4842467E-2,-4.74165E-2,3.5730705E-2,-5.66028E-2,1.1682852E-1,-4.8219677E-2,7.149041E-2,6.039741E-2,9.8993555E-2,-3.133399E-2,-5.1175103E-2,-8.262531E-2,4.0219024E-2,-1.0730238E-1,-3.449483E-2,-5.926061E-2,-3.1098053E-2,-4.9854595E-2,-8.95339E-2,-6.100409E-2,6.6359006E-2,4.9221855E-2,8.788962E-2,3.8995706E-2,-2.8072478E-2,-1.0856615E-1,4.5944717E-2,-2.94256E-2,6.0460985E-2,-5.7748307E-2,5.0066482E-2,1.01864606E-1,-3.8285956E-2,-6.1972894E-2,5.862509E-2,-5.9510965E-2,8.699887E-2,-7.037311E-2,1.1102111E-1,-9.244389E-3,-3.5285596E-2,-4.7930617E-2,-3.661246E-2,-7.146514E-2,1.5586856E-1,9.5619984E-2,-4.4224523E-2,-1.3161989E-1,1.06445864E-1,-7.33431E-2,-5.1609248E-2,-1.0158838E-1],"categories":[1,2,4,8,9,10,12,0,3,0,1,4,5,1,1,4,6,7,8,10,0,5,1,2,6,8,0,1,2,4,7,1,3,5,6,7,1,4,5,6,7,11,1,2,3,4,6,11,0,1,2,4,5,2,3,4,5,7,1,2,4,7,1,2,6,6,11,7,11,1,4,5,0,1,2,3,4,5,7,8,9,10,11,12,4,1,2,4,6,7,8,9,10,6,0,6,8,10,1,4,8,10,12,0,2,4,5,8,9,10,0,1,5,2,5,6,7,0,1,2,3,4,5,6,9,10,11,0,1,2,3,4,6,7,8,9,10,11,4,5,7,11,0,2,6,2,3,4,7,2,5,10,0,0,1,3,4,5,6,7,8,9,10,2,5,1,2,3,4,5,11,0,1,2,3,4,1,2,3,4,5,6,7,8,9,10,1,4,5,6,9,10,0,3,7,10,0,1,3,4,5,6,7,8,9,10,3,10],"categories_nodes":[0,1,2,3,4,5,6,7,8,9,11,12,13,14,15,16,17,18,19,20,21,23,24,25,28,30,31,32,33,34,35,37,38,40,41,42,45,46,48,50,51,53,54,55,57,58,60],"categories_segments":[0,7,9,11,13,14,20,22,26,31,36,42,48,53,58,62,65,67,69,71,72,84,85,93,94,98,103,110,113,117,127,138,142,145,149,152,153,163,165,169,171,176,186,192,196,206,207],"categories_sizes":[7,2,2,2,1,6,2,4,5,5,6,6,5,5,4,3,2,2,2,1,12,1,8,1,4,5,7,3,4,10,11,4,3,4,3,1,10,2,4,2,5,10,6,4,10,1,1],"default_left":[1,1,0,1,1,1,1,1,0,1,0,1,1,1,0,1,1,1,1,1,1,1,0,1,0,1,0,0,1,0,1,0,1,1,1,1,0,1,1,0,1,1,1,0,0,1,1,0,0,0,1,0,0,0,0,1,0,1,1,0,1,0,0,0,0,0,0,0,0,0,0,0,0,0,0,0,0,0,0,0,0,0,0,0,0,0,0,0,0,0,0,0,0,0,0,0,0,0,0,0,0,0,0,0,0,0,0,0,0,0,0,0,0,0,0],"id":4,"left_children":[1,3,5,7,9,11,13,15,17,19,21,23,25,27,29,31,33,35,37,39,41,43,-1,45,47,49,51,53,55,57,59,61,63,65,67,69,-1,71,73,75,77,79,81,-1,83,85,87,89,91,93,95,97,-1,99,101,103,105,107,109,111,113,-1,-1,-1,-1,-1,-1,-1,-1,-1,-1,-1,-1,-1,-1,-1,-1,-1,-1,-1,-1,-1,-1,-1,-1,-1,-1,-1,-1,-1,-1,-1,-1,-1,-1,-1,-1,-1,-1,-1,-1,-1,-1,-1,-1,-1,-1,-1,-1,-1,-1,-1,-1,-1,-1],"loss_changes":[6.999035E1,6.4011505E1,4.206258E1,6.383845E1,2.3106922E1,6.0505005E1,2.0943733E1,6.6955154E1,2.9818487E1,3.593372E1,1.0577765E0,4.2924522E1,2.9358585E1,3.289195E1,5.390671E0,4.665155E1,7.603469E1,3.8508663E0,8.116535E0,3.535872E1,5.9742813E0,2.767477E-1,0E0,1.1664215E1,2.6269806E1,7.3145485E0,1.8340843E1,2.5066711E1,1.1173611E0,2.5567863E1,5.837631E0,4.5891647E1,3.878813E1,4.9263145E1,3.0748108E1,3.1999588E-2,0E0,3.706562E0,2.7059517E0,3.1887257E1,1.8174496E0,1.2200928E0,1.4641838E0,0E0,1.6892672E-2,7.671257E0,7.695811E-1,7.8570976E0,1.6980612E1,1.8478203E0,4.162383E-2,1.9371574E1,0E0,7.596369E-1,2.3710781E1,3.0995178E-1,6.0212517E-1,7.534437E-1,2.7214298E0,6.579364E0,6.559067E0,0E0,0E0,0E0,0E0,0E0,0E0,0E0,0E0,0E0,0E0,0E0,0E0,0E0,0E0,0E0,0E0,0E0,0E0,0E0,0E0,0E0,0E0,0E0,0E0,0E0,0E0,0E0,0E0,0E0,0E0,0E0,0E0,0E0,0E0,0E0,0E0,0E0,0E0,0E0,0E0,0E0,0E0,0E0,0E0,0E0,0E0,0E0,0E0,0E0,0E0,0E0,0E0,0E0,0E0],"parents":[2147483647,0,0,1,1,2,2,3,3,4,4,5,5,6,6,7,7,8,8,9,9,10,10,11,11,12,12,13,13,14,14,15,15,16,16,17,17,18,18,19,19,20,20,21,21,23,23,24,24,25,25,26,26,27,27,28,28,29,29,30,30,31,31,32,32,33,33,34,34,35,35,37,37,38,38,39,39,40,40,41,41,42,42,44,44,45,45,46,46,47,47,48,48,49,49,50,50,51,51,53,53,54,54,55,55,56,56,57,57,58,58,59,59,60,60],"right_children":[2,4,6,8,10,12,14,16,18,20,22,24,26,28,30,32,34,36,38,40,42,44,-1,46,48,50,52,54,56,58,60,62,64,66,68,70,-1,72,74,76,78,80,82,-1,84,86,88,90,92,94,96,98,-1,100,102,104,106,108,110,112,114,-1,-1,-1,-1,-1,-1,-1,-1,-1,-1,-1,-1,-1,-1,-1,-1,-1,-1,-1,-1,-1,-1,-1,-1,-1,-1,-1,-1,-1,-1,-1,-1,-1,-1,-1,-1,-1,-1,-1,-1,-1,-1,-1,-1,-1,-1,-1,-1,-1,-1,-1,-1,-1,-1],"split_conditions":[NaN,NaN,NaN,NaN,NaN,NaN,NaN,NaN,NaN,NaN,4.49E0,NaN,NaN,NaN,NaN,NaN,NaN,NaN,NaN,NaN,NaN,NaN,3.8872045E-2,NaN,NaN,NaN,1.889E1,3.52E0,NaN,1.93E0,NaN,NaN,NaN,NaN,NaN,NaN,-3.3062764E-2,NaN,NaN,1.026E1,NaN,NaN,NaN,9.011864E-2,4.48E0,NaN,NaN,1.927E1,NaN,5.72E0,NaN,NaN,5.588477E-2,NaN,NaN,NaN,1.02E0,NaN,NaN,5.63E0,NaN,5.0008215E-2,1.8789992E-2,2.4842467E-2,-4.74165E-2,3.5730705E-2,-5.66028E-2,1.1682852E-1,-4.8219677E-2,7.149041E-2,6.039741E-2,9.8993555E-2,-3.133399E-2,-5.1175103E-2,-8.262531E-2,4.0219024E-2,-1.0730238E-1,-3.449483E-2,-5.926061E-2,-3.1098053E-2,-4.9854595E-2,-8.95339E-2,-6.100409E-2,6.6359006E-2,4.9221855E-2,8.788962E-2,3.8995706E-2,-2.8072478E-2,-1.0856615E-1,4.5944717E-2,-2.94256E-2,6.0460985E-2,-5.7748307E-2,5.0066482E-2,1.01864606E-1,-3.8285956E-2,-6.1972894E-2,5.862509E-2,-5.9510965E-2,8.699887E-2,-7.037311E-2,1.1102111E-1,-9.244389E-3,-3.5285596E-2,-4.7930617E-2,-3.661246E-2,-7.146514E-2,1.5586856E-1,9.5619984E-2,-4.4224523E-2,-1.3161989E-1,1.06445864E-1,-7.33431E-2,-5.1609248E-2,-1.0158838E-1],"split_indices":[12,1,5,2,6,2,18,3,16,11,9,7,7,1,11,11,5,3,12,18,11,12,0,10,2,2,0,8,7,0,12,2,5,16,7,7,0,7,5,8,2,3,6,0,0,2,3,9,10,0,3,14,0,2,2,2,0,2,2,0,3,0,0,0,0,0,0,0,0,0,0,0,0,0,0,0,0,0,0,0,0,0,0,0,0,0,0,0,0,0,0,0,0,0,0,0,0,0,0,0,0,0,0,0,0,0,0,0,0,0,0,0,0,0,0],"split_type":[1,1,1,1,1,1,1,1,1,1,0,1,1,1,1,1,1,1,1,1,1,1,0,1,1,1,0,0,1,0,1,1,1,1,1,1,0,1,1,0,1,1,1,0,0,1,1,0,1,0,1,1,0,1,1,1,0,1,1,0,1,0,0,0,0,0,0,0,0,0,0,0,0,0,0,0,0,0,0,0,0,0,0,0,0,0,0,0,0,0,0,0,0,0,0,0,0,0,0,0,0,0,0,0,0,0,0,0,0,0,0,0,0,0,0],"sum_hessian":[4.8855E4,3.692E4,1.1935E4,3.1479E4,5.441E3,5.811E3,6.124E3,2.8846E4,2.633E3,5.144E3,2.97E2,3.112E3,2.699E3,1.936E3,4.188E3,2.1899E4,6.947E3,3.3E2,2.303E3,2.723E3,2.421E3,1.52E2,1.45E2,1.365E3,1.747E3,3.07E2,2.392E3,7.81E2,1.155E3,5.66E2,3.622E3,1.9219E4,2.68E3,3.653E3,3.294E3,2.88E2,4.2E1,1.291E3,1.012E3,1.51E3,1.213E3,1.718E3,7.03E2,6.9E1,8.3E1,1.318E3,4.7E1,8.64E2,8.83E2,2.59E2,4.8E1,2.243E3,1.49E2,1.64E2,6.17E2,9.18E2,2.37E2,9.6E1,4.7E2,7.3E1,3.549E3,6.31E3,1.2909E4,1.269E3,1.411E3,3.026E3,6.27E2,1.04E2,3.19E3,7.5E1,2.13E2,1.9E1,1.272E3,5.61E2,4.51E2,1.365E3,1.45E2,8.1E2,4.03E2,4.2E2,1.298E3,4.21E2,2.82E2,5.8E1,2.5E1,8.86E2,4.32E2,1.8E1,2.9E1,7.14E2,1.5E2,1.27E2,7.56E2,1.48E2,1.11E2,1.8E1,3E1,1.32E2,2.111E3,2E0,1.62E2,3.74E2,2.43E2,6.65E2,2.53E2,6.5E1,1.72E2,3.4E1,6.2E1,4.36E2,3.4E1,4.2E1,3.1E1,3.294E3,2.55E2],"tree_param":{"num_deleted":"0","num_feature":"20","num_nodes":"115","size_leaf_vector":"1"}},{"base_weights":[-1.9235458E-6,5.522107E-3,-1.5267693E-1,9.0752706E-2,-6.838327E-3,-1.0778095E-1,-2.4339221E-1,1.6899052E-1,1.8699454E-2,2.924974E-2,-3.7363254E-2,-7.652017E-2,-1.2556356E-1,-3.8071156E-1,-2.122509E-1,-2.1204692E-1,1.9722624E-1,2.725912E-1,-2.3797516E-2,8.418294E-2,-1.9998159E-4,-1.8682236E-2,-1.1812265E-1,-6.889495E-2,-3.4000568E-2,-1.0051893E-1,-1.3832046E-1,-9.2026845E-2,-1.3264158E-1,-3.1005323E-2,-2.4015863E-1,-1.474731E-1,-1.2161832E-1,2.2286755E-1,-2.5620142E-2,3.7819853E-1,1.7954136E-1,9.889455E-2,-1.0929976E-1,1.5260705E-1,-2.1453712E-3,6.624385E-2,-4.2406023E-2,1.9337002E-2,-7.7449724E-2,1.5698309E-1,-1.4190887E-1,-5.4214753E-2,-2.586157E-2,-8.108558E-2,-1.075179E-1,-1.1628364E-1,-4.7462624E-2,-1.9624054E-1,-2.6370537E-1,-5.4628298E-2,-3.833958E-2,8.724295E-2,6.2647365E-2,1.0318884E-1,-3.4500204E-2,1.3740149E-1,8.5711375E-2,6.950176E-2,4.9463306E-2,6.541986E-2,-2.0953063E-2,5.148558E-2,-5.1506888E-2,6.031838E-2,-2.3092773E-2,4.9236678E-2,-2.4433127E-2,3.3232324E-2,-3.301539E-2,7.579066E-2,-1.7538717E-2,-6.1631207E-3,3.039575E-2,6.9262594E-2,-2.7145393E-2,5.3569127E-2,2.8947467E-2,5.4387677E-2,-4.537962E-2,-1.0626239E-2,-1.7505385E-2,-1.874977E-2,-2.618104E-2,-3.0537894E-2,-3.9244384E-2,-2.38998E-2,-4.2115036E-2,-5.1583555E-2,-6.497345E-2,-6.954407E-2,-9.6899025E-2],"categories":[7,0,2,11,2,4,5,6,8,9,12,1,2,3,6,8,9,10,11,1,3,7,0,0,1,3,4,5,0,2,4,5,6,8,9,1,2,3,7,7,3,5,8,10,5,3,4,5,10,1,2,4,5,6,7,0,1,2,3,4,6,8,9,10,11,0,2,0,1,2,6,1,0,1,2,3,5,6,6,11,7,3,7,8,10,0,2,3,4,5,10,0,1,2,3,4,8,10,0,1,2,4,5,6,7,8,9,10,0,1,2,3,4,5,6,0,1,0,1,2,3,4,5,6,7,8,9,3,8,9,11,1,6,1,2,3,5,6,0,2,3,4,5,6,0,0,1,2,3,4,5,7,8,9,10,0,1,3,4,5,7,8,9,10,11,0,1,2,3,4,5,4,1,6,3,10,5,4],"categories_nodes":[0,1,2,3,4,5,7,8,9,10,11,12,13,14,15,16,17,18,19,20,21,22,23,25,26,30,33,34,35,36,37,38,39,40,41,42,43,44,45,46,47,49,51,53,54],"categories_segments":[0,1,3,4,11,19,22,23,28,35,39,40,44,45,49,50,55,65,66,67,71,72,78,80,81,83,85,91,98,108,115,117,127,131,133,138,144,145,155,165,171,172,174,176,177],"categories_sizes":[1,2,1,7,8,3,1,5,7,4,1,4,1,4,1,5,10,1,1,4,1,6,2,1,2,2,6,7,10,7,2,10,4,2,5,6,1,10,10,6,1,2,2,1,1],"default_left":[1,1,1,1,1,1,0,1,0,0,1,1,1,1,1,1,0,1,0,0,1,0,1,1,0,1,1,0,0,0,1,0,0,1,1,1,1,1,0,1,1,1,1,1,0,1,0,1,0,1,0,1,0,1,1,0,0,0,0,0,0,0,0,0,0,0,0,0,0,0,0,0,0,0,0,0,0,0,0,0,0,0,0,0,0,0,0,0,0,0,0,0,0,0,0,0,0],"id":5,"left_children":[1,3,5,7,9,11,13,15,17,19,21,23,25,27,29,31,33,35,37,39,41,43,45,47,-1,49,51,-1,-1,-1,53,55,-1,57,59,61,63,65,67,69,71,73,75,77,79,81,83,85,-1,87,89,91,-1,93,95,-1,-1,-1,-1,-1,-1,-1,-1,-1,-1,-1,-1,-1,-1,-1,-1,-1,-1,-1,-1,-1,-1,-1,-1,-1,-1,-1,-1,-1,-1,-1,-1,-1,-1,-1,-1,-1,-1,-1,-1,-1,-1],"loss_changes":[4.120508E1,4.9673595E1,6.921879E0,3.366273E1,4.5364388E1,6.257839E-1,2.3310318E0,3.084446E1,3.356224E1,3.0528908E1,3.3656174E1,1.0925293E-1,2.1836662E-1,3.3228588E-1,1.3792648E0,2.412281E0,1.5239426E1,4.314823E0,2.7967852E1,3.8903416E1,3.445682E1,4.048693E1,2.7447018E1,8.375955E-2,0E0,2.5149107E-2,1.915369E-1,0E0,0E0,0E0,3.2777596E-1,7.8902006E-2,0E0,2.2205658E0,9.156809E0,1.404522E0,1.4450216E-1,2.203436E1,2.7563526E1,4.088601E1,3.842055E1,3.7482735E1,3.56108E1,3.597649E1,2.862807E1,4.187889E-1,1.1694183E1,1.2781799E-2,0E0,2.5920868E-3,1.06909275E-2,1.9266868E-1,0E0,2.7982712E-2,3.7137985E-1,0E0,0E0,0E0,0E0,0E0,0E0,0E0,0E0,0E0,0E0,0E0,0E0,0E0,0E0,0E0,0E0,0E0,0E0,0E0,0E0,0E0,0E0,0E0,0E0,0E0,0E0,0E0,0E0,0E0,0E0,0E0,0E0,0E0,0E0,0E0,0E0,0E0,0E0,0E0,0E0,0E0,0E0],"parents":[2147483647,0,0,1,1,2,2,3,3,4,4,5,5,6,6,7,7,8,8,9,9,10,10,11,11,12,12,13,13,14,14,15,15,16,16,17,17,18,18,19,19,20,20,21,21,22,22,23,23,25,25,26,26,30,30,31,31,33,33,34,34,35,35,36,36,37,37,38,38,39,39,40,40,41,41,42,42,43,43,44,44,45,45,46,46,47,47,49,49,50,50,51,51,53,53,54,54],"right_children":[2,4,6,8,10,12,14,16,18,20,22,24,26,28,30,32,34,36,38,40,42,44,46,48,-1,50,52,-1,-1,-1,54,56,-1,58,60,62,64,66,68,70,72,74,76,78,80,82,84,86,-1,88,90,92,-1,94,96,-1,-1,-1,-1,-1,-1,-1,-1,-1,-1,-1,-1,-1,-1,-1,-1,-1,-1,-1,-1,-1,-1,-1,-1,-1,-1,-1,-1,-1,-1,-1,-1,-1,-1,-1,-1,-1,-1,-1,-1,-1,-1],"split_conditions":[NaN,NaN,NaN,NaN,NaN,NaN,8.22E0,NaN,NaN,NaN,NaN,NaN,NaN,NaN,NaN,NaN,NaN,NaN,NaN,NaN,NaN,NaN,NaN,NaN,-3.4000568E-2,NaN,NaN,-9.2026845E-2,-1.3264158E-1,-3.1005323E-2,NaN,2.324E1,-1.2161832E-1,NaN,NaN,NaN,NaN,NaN,NaN,NaN,NaN,NaN,NaN,NaN,NaN,NaN,NaN,NaN,-2.586157E-2,NaN,8.22E0,NaN,-4.7462624E-2,NaN,NaN,-5.4628298E-2,-3.833958E-2,8.724295E-2,6.2647365E-2,1.0318884E-1,-3.4500204E-2,1.3740149E-1,8.5711375E-2,6.950176E-2,4.9463306E-2,6.541986E-2,-2.0953063E-2,5.148558E-2,-5.1506888E-2,6.031838E-2,-2.3092773E-2,4.9236678E-2,-2.4433127E-2,3.3232324E-2,-3.301539E-2,7.579066E-2,-1.7538717E-2,-6.1631207E-3,3.039575E-2,6.9262594E-2,-2.7145393E-2,5.3569127E-2,2.8947467E-2,5.4387677E-2,-4.537962E-2,-1.0626239E-2,-1.7505385E-2,-1.874977E-2,-2.618104E-2,-3.0537894E-2,-3.9244384E-2,-2.38998E-2,-4.2115036E-2,-5.1583555E-2,-6.497345E-2,-6.954407E-2,-9.6899025E-2],"split_indices":[16,19,12,12,3,2,9,4,5,2,11,12,7,7,7,2,16,7,6,6,5,5,5,3,0,2,2,0,0,0,2,9,0,3,2,2,11,11,2,7,16,17,1,6,2,3,17,2,0,12,9,7,0,3,1,0,0,0,0,0,0,0,0,0,0,0,0,0,0,0,0,0,0,0,0,0,0,0,0,0,0,0,0,0,0,0,0,0,0,0,0,0,0,0,0,0,0],"split_type":[1,1,1,1,1,1,0,1,1,1,1,1,1,1,1,1,1,1,1,1,1,1,1,1,0,1,1,0,0,0,1,0,0,1,1,1,1,1,1,1,1,1,1,1,1,1,1,1,0,1,0,1,0,1,1,0,0,0,0,0,0,0,0,0,0,0,0,0,0,0,0,0,0,0,0,0,0,0,0,0,0,0,0,0,0,0,0,0,0,0,0,0,0,0,0,0,0],"sum_hessian":[4.8855E4,4.715E4,1.705E3,5.971E3,4.1179E4,1.142E3,5.63E2,2.862E3,3.109E3,1.887E4,2.2309E4,4.16E2,7.26E2,1.02E2,4.61E2,1.97E2,2.665E3,4.45E2,2.664E3,6.585E3,1.2285E4,1.8119E4,4.19E3,3.47E2,6.9E1,2.48E2,4.78E2,4.9E1,5.3E1,9.5E1,3.66E2,1.49E2,4.8E1,2.39E3,2.75E2,2.07E2,2.38E2,1.094E3,1.57E3,3.673E3,2.912E3,4.772E3,7.513E3,1.1002E4,7.117E3,3.33E2,3.857E3,1.9E2,1.57E2,6.9E1,1.79E2,2.3E2,2.48E2,1.31E2,2.35E2,5.1E1,9.8E1,4.06E2,1.984E3,5.3E1,2.22E2,1.09E2,9.8E1,4.9E1,1.89E2,6.41E2,4.53E2,2.85E2,1.285E3,3.033E3,6.4E2,9.4E2,1.972E3,3.81E3,9.62E2,3.87E2,7.126E3,7.402E3,3.6E3,2.88E2,6.829E3,2.44E2,8.9E1,1.08E2,3.749E3,3.6E1,1.54E2,2E1,4.9E1,1.48E2,3.1E1,9.3E1,1.37E2,6.4E1,6.7E1,1.56E2,7.9E1],"tree_param":{"num_deleted":"0","num_feature":"20","num_nodes":"97","size_leaf_vector":"1"}},{"base_weights":[-5.152228E-6,2.6416928E-2,-2.2456868E-2,6.285278E-2,-3.0506708E-2,2.1784911E-2,-5.092414E-2,9.539521E-2,-8.28515E-2,1.7539287E-1,-5.6256764E-2,1.9005068E-1,7.538953E-4,3.573424E-3,-8.6901575E-2,1.478503E-1,1.3293299E-3,7.882579E-2,-1.0316328E-1,3.0719256E-1,1.53269E-1,-1.1038611E-2,-1.8279603E-1,2.8460574E-1,1.3373542E-1,2.526561E-2,-1.07941225E-1,2.05296E-1,-2.0477109E-2,-5.2636944E-2,-1.2241671E-1,1.5844001E-1,-3.8594335E-1,2.378389E-1,-7.6383635E-2,2.2356571E-1,-1.2653898E-1,3.6477596E-1,2.4690455E-1,1.727004E-1,8.537405E-2,3.391902E-2,-1.7600842E-1,-2.9965347E-2,-2.4483019E-1,3.791002E-1,1.6536866E-1,1.4635384E-1,8.251345E-2,3.86382E-2,-1.8948269E-1,2.6296064E-2,-1.6379246E-1,2.5904614E-1,-9.884607E-2,-5.1258974E-2,1.4416023E-1,4.6139374E-1,-5.6724973E-2,-9.639977E-2,-1.8238594E-1,5.4134417E-2,-1.608418E-2,-8.5877426E-2,-1.3045247E-1,9.516122E-2,3.5637543E-2,4.3947995E-2,-3.456622E-2,7.78596E-2,5.3769577E-2,-2.9545177E-2,-5.344254E-2,1.2694211E-1,8.648499E-2,8.128592E-2,6.273845E-2,5.7727568E-2,4.7220428E-2,3.0128503E-2,2.0359715E-2,1.4851497E-2,-1.4623752E-1,5.7313252E-2,-9.2619866E-2,7.478941E-2,-2.9959528E-2,-4.9228664E-2,-1.0694406E-1,9.742375E-2,1.459299E-1,5.78839E-2,3.0582495E-2,8.4607616E-2,3.9976135E-2,4.2145472E-2,1.9456059E-2,2.0139633E-2,-2.263971E-2,-6.640074E-2,-3.5917556E-3,1.7502453E-2,-9.424387E-2,-3.724474E-2,-5.784778E-2,9.286161E-2,4.4427637E-2,-2.2620538E-2,-3.5862196E-2,7.6783258E-3,-3.763662E-2,5.675791E-2,-9.0418205E-2,1.6897348E-1,9.338282E-2,3.6188282E-2,-2.045277E-2,1.0563675E-1,-3.0969784E-2,-2.4889199E-2,-6.4405724E-2],"categories":[1,2,4,6,8,9,10,12,2,0,1,5,1,2,3,4,7,0,1,2,3,6,0,1,3,4,7,0,3,4,5,6,8,11,4,5,6,7,8,1,2,3,4,0,1,4,5,6,9,10,0,1,3,6,7,9,11,0,1,2,3,4,5,2,0,1,3,5,6,7,1,1,0,2,3,5,7,8,9,10,0,1,2,4,5,6,0,1,2,4,5,6,7,0,1,3,4,6,7,8,9,10,11,3,10,0,1,6,0,1,2,3,4,6,7,8,9,10,11,0,1,2,3,4,5,6,7,8,9,1,4,0,1,2,3,4,5,6,8,10,7,0,1,2,3,5,6,7,1,8,0,2,0,1,2,3,4,5,6,7,9,10,0,1,3,0,1,2,3,4,5,6,7,8,9,11,10,0,1,2,3,4,5,7,8,9,10,11,0,1,3,4,5,6,7,9,10,0,1,2,3,4,5,6,7,8,9,0,1,2,3,4,5,7,8,9,10,11,0,0,1,3,4,5,6,1,3,6,0,7,9,11,0,1,2,4,5,6,7,8,9,10,0,1,2,3,4,5,6,0,1,2,3,4,5,6,8,9,10,0,1,2,3,4,5,6,7,9,10,1,2,3,4,1,4,1,12,1,2,3,5,9,3,7,8,0,1,2,3,4,6,7,8,9,10,11,0,1,3,4,5,6,7,8,9,10,1,6,12,2,3,5,6,7,10,11],"categories_nodes":[0,1,2,3,4,5,6,7,8,9,10,11,12,13,14,15,16,18,19,20,21,22,23,24,25,26,27,29,31,32,33,34,35,36,37,38,39,40,41,42,43,44,45,46,47,48,49,50,51,52,54,55,56,57,58,59,60],"categories_segments":[0,8,9,12,17,22,27,34,39,43,50,57,63,64,70,71,72,80,86,93,103,105,108,119,129,131,140,141,148,150,152,162,165,176,177,188,197,207,218,219,225,228,232,242,249,259,269,273,274,275,276,277,282,285,296,306,309],"categories_sizes":[8,1,3,5,5,5,7,5,4,7,7,6,1,6,1,1,8,6,7,10,2,3,11,10,2,9,1,7,2,2,10,3,11,1,11,9,10,11,1,6,3,4,10,7,10,10,4,1,1,1,1,5,3,11,10,3,7],"default_left":[1,0,0,1,0,1,1,1,0,0,1,1,1,1,0,1,1,0,0,1,1,1,0,1,1,1,0,1,0,0,0,1,1,1,1,1,0,1,1,0,1,1,0,1,1,0,1,0,1,1,1,1,0,0,1,0,1,1,0,1,1,0,0,0,0,0,0,0,0,0,0,0,0,0,0,0,0,0,0,0,0,0,0,0,0,0,0,0,0,0,0,0,0,0,0,0,0,0,0,0,0,0,0,0,0,0,0,0,0,0,0,0,0,0,0,0,0,0,0,0,0],"id":6,"left_children":[1,3,5,7,9,11,13,15,17,19,21,23,25,27,29,31,33,-1,35,37,39,41,43,45,47,49,51,53,55,57,59,61,63,65,67,69,71,73,75,77,79,81,83,85,87,89,91,93,95,97,99,101,103,105,107,109,111,113,115,117,119,-1,-1,-1,-1,-1,-1,-1,-1,-1,-1,-1,-1,-1,-1,-1,-1,-1,-1,-1,-1,-1,-1,-1,-1,-1,-1,-1,-1,-1,-1,-1,-1,-1,-1,-1,-1,-1,-1,-1,-1,-1,-1,-1,-1,-1,-1,-1,-1,-1,-1,-1,-1,-1,-1,-1,-1,-1,-1,-1,-1],"loss_changes":[2.8983E1,4.6552147E1,3.3266777E1,6.48963E1,4.645473E1,3.6598125E1,3.1512398E1,5.519909E1,1.7569677E1,2.7930222E0,4.45542E1,6.080242E0,2.4498337E1,3.1015219E1,1.177449E1,4.065895E1,7.364789E1,0E0,1.8060463E1,3.9248753E-1,1.0881882E0,4.2562717E1,1.9428146E1,4.7596855E0,4.545822E-1,2.1553993E1,1.2689775E1,1.1158375E1,2.8954914E1,1.0383841E1,7.3981247E0,3.2878586E1,5.5794525E-1,9.32547E0,2.6123056E1,2.0541811E-1,3.173233E0,1.8606186E-1,7.836819E-3,1.6555977E-1,4.273653E-2,3.6673157E1,5.9932E1,1.1600514E1,1.3083954E1,1.2305298E0,3.1442213E-1,9.897013E-1,1.3933581E-1,2.2972012E1,2.485219E0,5.4513206E0,1.3514824E0,3.1979256E0,4.095888E-2,2.7448124E1,1.8115126E1,4.2097187E-1,9.941116E0,1.0201895E1,4.59684E0,0E0,0E0,0E0,0E0,0E0,0E0,0E0,0E0,0E0,0E0,0E0,0E0,0E0,0E0,0E0,0E0,0E0,0E0,0E0,0E0,0E0,0E0,0E0,0E0,0E0,0E0,0E0,0E0,0E0,0E0,0E0,0E0,0E0,0E0,0E0,0E0,0E0,0E0,0E0,0E0,0E0,0E0,0E0,0E0,0E0,0E0,0E0,0E0,0E0,0E0,0E0,0E0,0E0,0E0,0E0,0E0,0E0,0E0,0E0,0E0],"parents":[2147483647,0,0,1,1,2,2,3,3,4,4,5,5,6,6,7,7,8,8,9,9,10,10,11,11,12,12,13,13,14,14,15,15,16,16,18,18,19,19,20,20,21,21,22,22,23,23,24,24,25,25,26,26,27,27,28,28,29,29,30,30,31,31,32,32,33,33,34,34,35,35,36,36,37,37,38,38,39,39,40,40,41,41,42,42,43,43,44,44,45,45,46,46,47,47,48,48,49,49,50,50,51,51,52,52,53,53,54,54,55,55,56,56,57,57,58,58,59,59,60,60],"right_children":[2,4,6,8,10,12,14,16,18,20,22,24,26,28,30,32,34,-1,36,38,40,42,44,46,48,50,52,54,56,58,60,62,64,66,68,70,72,74,76,78,80,82,84,86,88,90,92,94,96,98,100,102,104,106,108,110,112,114,116,118,120,-1,-1,-1,-1,-1,-1,-1,-1,-1,-1,-1,-1,-1,-1,-1,-1,-1,-1,-1,-1,-1,-1,-1,-1,-1,-1,-1,-1,-1,-1,-1,-1,-1,-1,-1,-1,-1,-1,-1,-1,-1,-1,-1,-1,-1,-1,-1,-1,-1,-1,-1,-1,-1,-1,-1,-1,-1,-1,-1,-1],"split_conditions":[NaN,NaN,NaN,NaN,NaN,NaN,NaN,NaN,NaN,NaN,NaN,NaN,NaN,NaN,NaN,NaN,NaN,7.882579E-2,NaN,NaN,NaN,NaN,NaN,NaN,NaN,NaN,NaN,NaN,1.859E1,NaN,9.6E0,NaN,NaN,NaN,NaN,NaN,NaN,NaN,NaN,NaN,NaN,NaN,NaN,NaN,NaN,NaN,NaN,NaN,NaN,NaN,NaN,NaN,NaN,4.63E0,NaN,NaN,NaN,NaN,NaN,NaN,NaN,5.4134417E-2,-1.608418E-2,-8.5877426E-2,-1.3045247E-1,9.516122E-2,3.5637543E-2,4.3947995E-2,-3.456622E-2,7.78596E-2,5.3769577E-2,-2.9545177E-2,-5.344254E-2,1.2694211E-1,8.648499E-2,8.128592E-2,6.273845E-2,5.7727568E-2,4.7220428E-2,3.0128503E-2,2.0359715E-2,1.4851497E-2,-1.4623752E-1,5.7313252E-2,-9.2619866E-2,7.478941E-2,-2.9959528E-2,-4.9228664E-2,-1.0694406E-1,9.742375E-2,1.459299E-1,5.78839E-2,3.0582495E-2,8.4607616E-2,3.9976135E-2,4.2145472E-2,1.9456059E-2,2.0139633E-2,-2.263971E-2,-6.640074E-2,-3.5917556E-3,1.7502453E-2,-9.424387E-2,-3.724474E-2,-5.784778E-2,9.286161E-2,4.4427637E-2,-2.2620538E-2,-3.5862196E-2,7.6783258E-3,-3.763662E-2,5.675791E-2,-9.0418205E-2,1.6897348E-1,9.338282E-2,3.6188282E-2,-2.045277E-2,1.0563675E-1,-3.0969784E-2,-2.4889199E-2,-6.4405724E-2],"split_indices":[12,6,5,11,5,16,7,2,10,2,3,5,1,18,5,1,7,0,17,11,3,2,5,7,7,2,2,11,9,11,9,3,19,2,18,7,2,3,2,2,3,16,5,3,3,2,11,2,2,10,10,5,11,0,12,2,2,3,2,12,3,0,0,0,0,0,0,0,0,0,0,0,0,0,0,0,0,0,0,0,0,0,0,0,0,0,0,0,0,0,0,0,0,0,0,0,0,0,0,0,0,0,0,0,0,0,0,0,0,0,0,0,0,0,0,0,0,0,0,0,0],"split_type":[1,1,1,1,1,1,1,1,1,1,1,1,1,1,1,1,1,0,1,1,1,1,1,1,1,1,1,1,0,1,0,1,1,1,1,1,1,1,1,1,1,1,1,1,1,1,1,1,1,1,1,1,1,0,1,1,1,1,1,1,1,0,0,0,0,0,0,0,0,0,0,0,0,0,0,0,0,0,0,0,0,0,0,0,0,0,0,0,0,0,0,0,0,0,0,0,0,0,0,0,0,0,0,0,0,0,0,0,0,0,0,0,0,0,0,0,0,0,0,0,0],"sum_hessian":[4.8855E4,2.2443E4,2.6412E4,1.3684E4,8.759E3,1.0341E4,1.6071E4,1.1186E4,2.498E3,9.73E2,7.786E3,1.148E3,9.193E3,6.391E3,9.68E3,7.181E3,4.005E3,1.38E2,2.36E3,1.38E2,8.35E2,5.737E3,2.049E3,4.27E2,7.21E2,7.502E3,1.691E3,6.8E2,5.711E3,4.928E3,4.752E3,7.042E3,1.39E2,9.9E2,3.015E3,1.57E2,2.203E3,6.8E1,7E1,6.48E2,1.87E2,4.509E3,1.228E3,5.92E2,1.457E3,2.37E2,1.9E2,5.77E2,1.44E2,7.063E3,4.39E2,4.97E2,1.194E3,5.78E2,1.02E2,4.812E3,8.99E2,3.8E1,4.89E3,3.316E3,1.436E3,6.38E3,6.62E2,4.8E1,9.1E1,5.93E2,3.97E2,4.47E2,2.568E3,8.4E1,7.3E1,1.429E3,7.74E2,3.6E1,3.2E1,3.9E1,3.1E1,2.78E2,3.7E2,9.8E1,8.9E1,4.379E3,1.3E2,3.26E2,9.02E2,1.18E2,4.74E2,8.47E2,6.1E2,1.6E2,7.7E1,1.31E2,5.9E1,4.9E1,5.28E2,3.2E1,1.12E2,5.652E3,1.411E3,3.72E2,6.7E1,4.55E2,4.2E1,5.07E2,6.87E2,3.96E2,1.82E2,5E1,5.2E1,2.364E3,2.448E3,8.17E2,8.2E1,2.1E1,1.7E1,2.96E2,4.594E3,4.9E1,3.267E3,3.53E2,1.083E3],"tree_param":{"num_deleted":"0","num_feature":"20","num_nodes":"121","size_leaf_vector":"1"}},{"base_weights":[1.4333743E-5,-4.5330226E-2,7.644407E-3,6.2840604E-3,-8.899821E-2,1.4364064E-2,-5.281987E-2,7.985942E-2,-7.959926E-2,-7.685451E-2,-1.7136358E-1,2.0857811E-2,-5.5694807E-2,-1.241589E-1,3.933251E-2,1.393821E-1,-5.209624E-2,4.2097405E-2,-1.9359626E-1,-6.323528E-2,-1.5800904E-1,-1.3706507E-1,-2.8046945E-1,4.8909944E-2,-8.2923204E-4,1.3510934E-1,-9.809875E-2,-8.486538E-2,-2.2220847E-1,8.172653E-2,-5.4465402E-2,-1.1004548E-1,1.6648021E-1,-2.0535171E-2,-2.5415164E-1,1.8741351E-1,-1.9608825E-2,-2.4184952E-2,-3.4421718E-1,2.5400419E-2,-7.67687E-2,-2.698955E-2,-1.9401978E-1,9.346944E-2,-1.5151821E-1,-3.2990113E-2,-4.433283E-1,6.4352214E-2,-7.3655985E-2,8.573183E-2,-1.6679207E-2,1.4854726E-1,-4.723561E-2,7.94845E-2,-1.6909853E-1,-6.71771E-2,-2.3424207E-1,-1.6862245E-1,-2.627281E-1,1.00752085E-1,-7.5132474E-3,4.136242E-2,-9.076202E-2,-2.4356836E-2,-4.5572717E-2,5.321083E-2,-7.03954E-2,-2.2414774E-3,-3.233663E-2,-5.43452E-2,-9.026093E-2,7.061246E-2,4.2106874E-2,-1.9050516E-4,-1.3675205E-2,5.338796E-2,-1.7795779E-2,-4.9614176E-2,-1.2579018E-1,4.1745488E-2,-1.9297587E-2,-4.7890143E-3,-2.5597045E-2,6.118853E-2,-1.6949853E-2,-4.2880997E-2,-6.958825E-2,-1.2033792E-3,-4.8584808E-2,-9.876279E-2,-1.5526703E-1,6.5806415E-3,3.3407338E-2,1.2910076E-2,-3.8227595E-2,5.8057573E-2,7.142609E-3,8.378031E-3,-1.1560653E-2,3.5242423E-2,6.0980696E-2,3.647783E-2,-3.6390927E-2,-2.1065231E-2,-9.458746E-2,-1.4726151E-2,-4.443219E-2,-2.4456745E-2,-8.847856E-2,-1.3758565E-2,-5.552948E-2,-7.289956E-2,-1.1197296E-1,4.2664792E-2,2.2692448E-2,1.2615965E-2,-5.591411E-3,1.3539497E-2,-5.567534E-3,-1.4317744E-2,-4.734798E-2],"categories":[1,4,6,7,9,10,12,1,3,4,0,1,4,5,7,8,9,6,8,0,1,2,3,4,6,7,0,0,10,5,1,2,4,6,8,9,10,12,0,3,10,2,3,4,5,6,8,9,5,10,0,2,3,7,1,2,3,4,5,9,11,6,1,2,4,5,6,7,8,9,10,7,0,5,7,0,1,6,0,1,2,4,7,3,10,5,7,10,0,1,2,4,6,7,8,9,11,2,5,6,9,10,11,1,6,7,8,9,7,9,2,1,2,3,5,6,3,4,5,6,1,0,1,2,3,4,5,8,9,10,11,12,0,1,2,5,7,8,10,1,2,6,12,0,2,4,0,0,3,5,9,10,0,1,4,5,6,7,9,0,1,3,5,0,1,3,5,6,3,4,6,2,10,5,2,5,3,9,5,0,1,3,4,5,6,7,8,9,11,6,11,12,3,4],"categories_nodes":[1,2,3,4,7,8,9,10,11,12,13,14,16,17,18,19,20,21,22,23,24,25,26,27,28,29,30,31,32,33,34,35,36,37,38,39,40,41,42,44,46,47,48,49,50,51,53,54,55,56,57,58,59,60,61,62],"categories_segments":[0,7,10,17,19,26,27,29,30,38,39,41,48,50,54,55,61,62,71,72,75,76,78,83,85,88,97,102,103,108,110,111,114,116,120,121,132,139,141,143,146,147,148,152,159,163,168,171,173,174,176,178,179,189,191,192],"categories_sizes":[7,3,7,2,7,1,2,1,8,1,2,7,2,4,1,6,1,9,1,3,1,2,5,2,3,9,5,1,5,2,1,3,2,4,1,11,7,2,2,3,1,1,4,7,4,5,3,2,1,2,2,1,10,2,1,2],"default_left":[0,1,1,1,1,0,0,1,0,1,1,1,1,1,0,0,1,1,1,1,1,0,1,1,0,1,0,1,1,1,1,1,1,1,1,1,1,0,1,1,0,1,1,0,1,0,1,1,1,0,0,0,0,0,0,1,1,1,1,1,1,1,1,0,0,0,0,0,0,0,0,0,0,0,0,0,0,0,0,0,0,0,0,0,0,0,0,0,0,0,0,0,0,0,0,0,0,0,0,0,0,0,0,0,0,0,0,0,0,0,0,0,0,0,0,0,0,0,0,0,0],"id":7,"left_children":[1,3,5,7,9,11,13,15,17,19,21,23,25,27,29,31,33,35,37,39,41,43,45,47,49,51,53,55,57,59,61,63,65,67,69,71,73,75,77,79,81,83,85,-1,87,-1,89,91,93,95,97,99,-1,101,103,105,107,109,111,113,115,117,119,-1,-1,-1,-1,-1,-1,-1,-1,-1,-1,-1,-1,-1,-1,-1,-1,-1,-1,-1,-1,-1,-1,-1,-1,-1,-1,-1,-1,-1,-1,-1,-1,-1,-1,-1,-1,-1,-1,-1,-1,-1,-1,-1,-1,-1,-1,-1,-1,-1,-1,-1,-1,-1,-1,-1,-1,-1,-1],"loss_changes":[1.690366E1,1.5861198E1,1.699219E1,2.0391115E1,3.7996693E0,1.7124367E1,2.7504177E1,1.3658127E1,2.0665129E1,3.6639023E0,1.7914772E0,2.095588E1,2.5847328E1,9.065842E0,7.2654867E0,8.115625E0,3.4447837E0,6.4688163E0,1.961416E1,3.4182491E0,2.2453003E0,2.4722667E0,3.1723166E0,2.8431137E1,2.6656462E1,2.3075428E0,3.2959118E1,4.4363985E0,1.4191437E0,2.1366348E0,1.9828645E0,1.3021243E-1,4.7634315E0,5.337816E-1,1.9446182E-1,4.5220327E-1,2.4984512E-1,2.5886614E0,5.39571E0,3.8669722E0,1.2839947E0,7.203216E-1,6.917114E-1,0E0,5.5788517E-1,0E0,3.293972E-1,2.6593174E1,1.0552615E1,2.0066833E1,1.601124E1,9.215107E-1,0E0,6.330497E0,2.6966698E1,2.2004747E0,1.6256618E0,5.841255E-1,7.4222183E-1,1.0689487E0,1.23198256E-1,3.6296904E-2,1.1844707E0,0E0,0E0,0E0,0E0,0E0,0E0,0E0,0E0,0E0,0E0,0E0,0E0,0E0,0E0,0E0,0E0,0E0,0E0,0E0,0E0,0E0,0E0,0E0,0E0,0E0,0E0,0E0,0E0,0E0,0E0,0E0,0E0,0E0,0E0,0E0,0E0,0E0,0E0,0E0,0E0,0E0,0E0,0E0,0E0,0E0,0E0,0E0,0E0,0E0,0E0,0E0,0E0,0E0,0E0,0E0,0E0,0E0,0E0],"parents":[2147483647,0,0,1,1,2,2,3,3,4,4,5,5,6,6,7,7,8,8,9,9,10,10,11,11,12,12,13,13,14,14,15,15,16,16,17,17,18,18,19,19,20,20,21,21,22,22,23,23,24,24,25,25,26,26,27,27,28,28,29,29,30,30,31,31,32,32,33,33,34,34,35,35,36,36,37,37,38,38,39,39,40,40,41,41,42,42,44,44,46,46,47,47,48,48,49,49,50,50,51,51,53,53,54,54,55,55,56,56,57,57,58,58,59,59,60,60,61,61,62,62],"right_children":[2,4,6,8,10,12,14,16,18,20,22,24,26,28,30,32,34,36,38,40,42,44,46,48,50,52,54,56,58,60,62,64,66,68,70,72,74,76,78,80,82,84,86,-1,88,-1,90,92,94,96,98,100,-1,102,104,106,108,110,112,114,116,118,120,-1,-1,-1,-1,-1,-1,-1,-1,-1,-1,-1,-1,-1,-1,-1,-1,-1,-1,-1,-1,-1,-1,-1,-1,-1,-1,-1,-1,-1,-1,-1,-1,-1,-1,-1,-1,-1,-1,-1,-1,-1,-1,-1,-1,-1,-1,-1,-1,-1,-1,-1,-1,-1,-1,-1,-1,-1,-1],"split_conditions":[3.86E0,NaN,NaN,NaN,NaN,1.026E1,1.069E1,NaN,NaN,NaN,NaN,NaN,NaN,NaN,NaN,9E-1,NaN,NaN,NaN,NaN,NaN,NaN,NaN,NaN,NaN,NaN,NaN,NaN,NaN,NaN,NaN,NaN,NaN,NaN,NaN,NaN,NaN,NaN,NaN,NaN,NaN,NaN,NaN,9.346944E-2,NaN,-3.2990113E-2,NaN,NaN,NaN,NaN,NaN,NaN,-4.723561E-2,NaN,NaN,NaN,NaN,NaN,NaN,NaN,NaN,NaN,NaN,-2.4356836E-2,-4.5572717E-2,5.321083E-2,-7.03954E-2,-2.2414774E-3,-3.233663E-2,-5.43452E-2,-9.026093E-2,7.061246E-2,4.2106874E-2,-1.9050516E-4,-1.3675205E-2,5.338796E-2,-1.7795779E-2,-4.9614176E-2,-1.2579018E-1,4.1745488E-2,-1.9297587E-2,-4.7890143E-3,-2.5597045E-2,6.118853E-2,-1.6949853E-2,-4.2880997E-2,-6.958825E-2,-1.2033792E-3,-4.8584808E-2,-9.876279E-2,-1.5526703E-1,6.5806415E-3,3.3407338E-2,1.2910076E-2,-3.8227595E-2,5.8057573E-2,7.142609E-3,8.378031E-3,-1.1560653E-2,3.5242423E-2,6.0980696E-2,3.647783E-2,-3.6390927E-2,-2.1065231E-2,-9.458746E-2,-1.4726151E-2,-4.443219E-2,-2.4456745E-2,-8.847856E-2,-1.3758565E-2,-5.552948E-2,-7.289956E-2,-1.1197296E-1,4.2664792E-2,2.2692448E-2,1.2615965E-2,-5.591411E-3,1.3539497E-2,-5.567534E-3,-1.4317744E-2,-4.734798E-2],"split_indices":[8,12,10,2,7,8,0,11,6,3,1,12,4,2,2,9,3,11,18,7,1,2,12,16,6,7,11,12,7,7,3,3,3,3,1,19,1,5,5,12,2,1,12,0,18,0,18,6,7,2,5,5,0,5,2,5,3,7,7,3,7,12,14,0,0,0,0,0,0,0,0,0,0,0,0,0,0,0,0,0,0,0,0,0,0,0,0,0,0,0,0,0,0,0,0,0,0,0,0,0,0,0,0,0,0,0,0,0,0,0,0,0,0,0,0,0,0,0,0,0,0],"split_type":[0,1,1,1,1,0,0,1,1,1,1,1,1,1,1,0,1,1,1,1,1,1,1,1,1,1,1,1,1,1,1,1,1,1,1,1,1,1,1,1,1,1,1,0,1,0,1,1,1,1,1,1,0,1,1,1,1,1,1,1,1,1,1,0,0,0,0,0,0,0,0,0,0,0,0,0,0,0,0,0,0,0,0,0,0,0,0,0,0,0,0,0,0,0,0,0,0,0,0,0,0,0,0,0,0,0,0,0,0,0,0,0,0,0,0,0,0,0,0,0,0],"sum_hessian":[4.8855E4,7.036E3,4.1819E4,3.225E3,3.811E3,3.7637E4,4.182E3,1.737E3,1.488E3,3.323E3,4.88E2,3.4445E4,3.192E3,2.357E3,1.825E3,1.197E3,5.4E2,7.2E2,7.68E2,2.847E3,4.76E2,3.73E2,1.15E2,1.5018E4,1.9427E4,5.8E2,2.612E3,1.684E3,6.73E2,1.257E3,5.68E2,1.17E2,1.08E3,4.68E2,7.2E1,2.14E2,5.06E2,3.62E2,4.06E2,3.77E2,2.47E3,1.03E2,3.73E2,1.1E1,3.62E2,5.7E1,5.8E1,1.3338E4,1.68E3,3.006E3,1.6421E4,5.55E2,2.5E1,7.46E2,1.866E3,1.507E3,1.77E2,2.92E2,3.81E2,1.036E3,2.21E2,1.56E2,4.12E2,7.1E1,4.6E1,1.052E3,2.8E1,4.08E2,6E1,3E1,4.2E1,1.04E2,1.1E2,2.93E2,2.13E2,5.3E1,3.09E2,1.21E2,2.85E2,1.66E2,2.11E2,3.05E2,2.165E3,1.1E1,9.2E1,1.61E2,2.12E2,2.4E1,3.38E2,2.5E1,3.3E1,7.012E3,6.326E3,5.3E2,1.15E3,1.096E3,1.91E3,5.4E3,1.1021E4,3.56E2,1.99E2,6.17E2,1.29E2,1.114E3,7.52E2,1.233E3,2.74E2,5.1E1,1.26E2,3.5E1,2.57E2,3.26E2,5.5E1,3.89E2,6.47E2,4E1,1.81E2,1.47E2,9E0,2.52E2,1.6E2],"tree_param":{"num_deleted":"0","num_feature":"20","num_nodes":"121","size_leaf_vector":"1"}},{"base_weights":[-1.0928987E-5,4.7200672E-2,-4.773577E-3,1.1228663E-1,-1.6298337E-2,1.8308155E-3,-5.310916E-2,1.9793363E-1,8.269748E-2,1.4012401E-1,-5.2569948E-2,2.041774E-2,-1.4287955E-2,1.4439319E-1,-9.051975E-2,2.5352415E-1,1.3452284E-1,1.07691854E-1,9.3065705E-3,1.7417169E-1,5.9230033E-2,-8.841222E-2,3.1287104E-2,3.814837E-2,-3.882221E-2,4.7287878E-2,-3.749755E-2,1.005718E-1,2.2866702E-1,-1.7399292E-2,-1.5338643E-1,2.9269296E-1,1.9975062E-1,8.848026E-2,1.7692147E-1,1.581406E-1,9.356334E-2,2.8607653E-2,-3.0603737E-2,2.0859168E-1,1.3788971E-1,1.0025716E-1,2.1555264E-2,-1.8045509E-1,-6.4552784E-2,7.03297E-2,-7.446719E-3,9.623164E-2,8.556192E-3,1.5074585E-1,-7.754409E-2,1.1589478E-1,-4.181752E-3,-2.587547E-2,-1.3099179E-1,8.196257E-2,9.789731E-2,3.1943232E-1,1.9493994E-1,-1.5550937E-1,5.4398328E-2,-9.781654E-2,-3.3320624E-1,7.769795E-2,9.927215E-2,5.4122303E-2,7.003714E-2,4.4280224E-2,2.3483949E-2,5.9881512E-2,3.9901894E-2,5.1699083E-2,3.1894203E-2,3.3598606E-2,2.1016143E-2,2.5988128E-3,-1.3825654E-2,7.4039936E-2,5.0753668E-2,4.7209397E-2,3.0821199E-2,3.3349115E-2,1.9646818E-2,9.152695E-3,-4.3773116E-4,-4.7253564E-2,-7.898092E-2,-1.126089E-2,-2.5907123E-2,2.8914334E-2,1.2287193E-2,5.136286E-3,-1.1165937E-2,5.8672458E-2,1.706688E-2,1.9546598E-2,-2.0192316E-2,6.707684E-2,1.1502154E-2,3.431085E-2,-2.6944933E-2,5.3264815E-2,-5.0707185E-3,2.7012294E-2,-1.3282151E-2,-4.792821E-3,-3.9436582E-2,-2.2784794E-2,-1.0547767E-1,3.274998E-2,2.5585676E-2,1.089826E-1,7.159073E-2,9.049482E-2,5.0830584E-2,-3.5459768E-2,-1.03663236E-1,4.0683556E-2,-5.1112544E-2,4.6804054E-3,-3.593284E-2,7.219504E-2,-1.1741711E-1],"categories":[0,1,2,5,7,0,3,5,6,0,1,2,3,4,5,0,1,2,3,4,5,7,8,0,1,3,4,5,6,8,9,10,0,1,2,3,4,6,7,8,9,10,11,0,2,5,6,8,9,0,1,2,4,5,6,7,9,10,0,1,2,3,5,6,0,3,5,6,2,1,2,5,1,3,0,1,2,4,5,6,5,10,0,1,2,4,5,6,7,8,9,10,11,12,0,6,4,5,6,10,11,0,3,4,5,6,1,2,3,4,6,5,0,1,2,3,4,5,6,7,9,10,11,0,11,1,3,1,2,3,4,5,6,7,0,1,2,3,4,6,7,8,9,11,0,8,0,1,2,4,5,6,7,8,9,10,1,3,0,1,2,3,4,6,7,8,9,10,1,5,7,0,1,2,3,4,5,6,7,8,9,11,0,10,1,2,0,1,2,3,4,6,7,8,9,10,11,2,3,4,5,8,9,10,11,1,4,5,6,7,2,5,8,10,11,0,1,2,3,4,5,7,8,9,10,12,0,7,11,3,6,8,12,0,1,2,3,4,6,7],"categories_nodes":[0,1,2,3,4,5,6,7,8,9,11,12,13,14,15,17,18,19,21,22,23,24,25,26,28,29,30,34,35,36,38,39,40,41,42,43,44,45,46,48,49,50,51,52,57,59,60,61],"categories_segments":[0,5,8,9,15,16,23,32,43,49,58,64,68,69,72,74,80,82,94,95,96,101,106,111,112,123,124,125,127,134,144,146,156,158,168,169,170,171,182,184,186,197,205,210,215,226,229,233],"categories_sizes":[5,3,1,6,1,7,9,11,6,9,6,4,1,3,2,6,2,12,1,1,5,5,5,1,11,1,1,2,7,10,2,10,2,10,1,1,1,11,2,2,11,8,5,5,11,3,4,7],"default_left":[1,0,1,1,0,1,0,1,1,1,0,1,1,0,1,1,0,0,1,1,0,1,1,1,0,0,1,0,1,1,1,0,0,0,1,1,1,0,1,1,1,1,1,1,1,1,1,0,1,1,1,1,1,0,0,0,0,1,0,1,1,0,0,0,0,0,0,0,0,0,0,0,0,0,0,0,0,0,0,0,0,0,0,0,0,0,0,0,0,0,0,0,0,0,0,0,0,0,0,0,0,0,0,0,0,0,0,0,0,0,0,0,0,0,0,0,0,0,0,0,0,0,0],"id":8,"left_children":[1,3,5,7,9,11,13,15,17,19,21,23,25,27,29,31,33,35,37,39,41,43,45,47,49,51,53,55,57,59,61,63,65,67,69,71,73,-1,75,77,79,81,83,85,87,89,91,93,95,97,99,101,103,105,107,-1,109,111,113,115,117,119,121,-1,-1,-1,-1,-1,-1,-1,-1,-1,-1,-1,-1,-1,-1,-1,-1,-1,-1,-1,-1,-1,-1,-1,-1,-1,-1,-1,-1,-1,-1,-1,-1,-1,-1,-1,-1,-1,-1,-1,-1,-1,-1,-1,-1,-1,-1,-1,-1,-1,-1,-1,-1,-1,-1,-1,-1,-1,-1,-1,-1],"loss_changes":[1.0985605E1,1.8504795E1,1.4167398E1,5.5867977E0,1.2869622E1,1.169841E1,3.943167E1,1.964592E0,3.0165186E0,1.1657495E0,5.536125E0,1.9049788E1,2.9888163E1,3.1160507E0,2.061876E1,5.7551384E-1,5.05568E-1,8.5976696E-1,1.4419205E0,3.4588432E-1,1.9568697E-1,2.8213081E0,8.3529645E-1,2.3990334E1,3.0680012E1,2.0216442E1,1.6499855E1,2.3227549E-1,8.254919E-1,2.0584108E1,2.4069473E1,1.3580036E-1,4.2640686E-2,6.684291E-2,1.1092043E-1,1.7803144E-1,4.085827E-1,0E0,1.7487058E-1,1.871419E-1,8.583689E-2,1.5850961E-2,1.4056876E-2,4.620409E-1,6.0114956E-1,2.0648026E-1,2.0398173E-1,1.840118E1,3.9713737E1,5.796726E0,8.182924E0,2.0095264E1,1.2364247E1,1.4118238E1,2.0360376E1,0E0,6.942701E-2,1.860714E-1,5.313101E-1,4.9932156E0,2.495895E1,4.594553E0,1.9092701E1,0E0,0E0,0E0,0E0,0E0,0E0,0E0,0E0,0E0,0E0,0E0,0E0,0E0,0E0,0E0,0E0,0E0,0E0,0E0,0E0,0E0,0E0,0E0,0E0,0E0,0E0,0E0,0E0,0E0,0E0,0E0,0E0,0E0,0E0,0E0,0E0,0E0,0E0,0E0,0E0,0E0,0E0,0E0,0E0,0E0,0E0,0E0,0E0,0E0,0E0,0E0,0E0,0E0,0E0,0E0,0E0,0E0,0E0,0E0,0E0],"parents":[2147483647,0,0,1,1,2,2,3,3,4,4,5,5,6,6,7,7,8,8,9,9,10,10,11,11,12,12,13,13,14,14,15,15,16,16,17,17,18,18,19,19,20,20,21,21,22,22,23,23,24,24,25,25,26,26,27,27,28,28,29,29,30,30,31,31,32,32,33,33,34,34,35,35,36,36,38,38,39,39,40,40,41,41,42,42,43,43,44,44,45,45,46,46,47,47,48,48,49,49,50,50,51,51,52,52,53,53,54,54,56,56,57,57,58,58,59,59,60,60,61,61,62,62],"right_children":[2,4,6,8,10,12,14,16,18,20,22,24,26,28,30,32,34,36,38,40,42,44,46,48,50,52,54,56,58,60,62,64,66,68,70,72,74,-1,76,78,80,82,84,86,88,90,92,94,96,98,100,102,104,106,108,-1,110,112,114,116,118,120,122,-1,-1,-1,-1,-1,-1,-1,-1,-1,-1,-1,-1,-1,-1,-1,-1,-1,-1,-1,-1,-1,-1,-1,-1,-1,-1,-1,-1,-1,-1,-1,-1,-1,-1,-1,-1,-1,-1,-1,-1,-1,-1,-1,-1,-1,-1,-1,-1,-1,-1,-1,-1,-1,-1,-1,-1,-1,-1,-1,-1],"split_conditions":[NaN,NaN,NaN,NaN,NaN,NaN,NaN,NaN,NaN,NaN,1.679E1,NaN,NaN,NaN,NaN,NaN,6.95E0,NaN,NaN,NaN,9.87E0,NaN,NaN,NaN,NaN,NaN,NaN,3.65E0,NaN,NaN,NaN,7.67E0,7.9E0,4.45E0,NaN,NaN,NaN,2.8607653E-2,NaN,NaN,NaN,NaN,NaN,NaN,NaN,NaN,NaN,4.41E0,NaN,NaN,NaN,NaN,NaN,2.654E1,8.64E0,8.196257E-2,8.22E0,NaN,9.87E0,NaN,NaN,NaN,4.49E0,7.769795E-2,9.927215E-2,5.4122303E-2,7.003714E-2,4.4280224E-2,2.3483949E-2,5.9881512E-2,3.9901894E-2,5.1699083E-2,3.1894203E-2,3.3598606E-2,2.1016143E-2,2.5988128E-3,-1.3825654E-2,7.4039936E-2,5.0753668E-2,4.7209397E-2,3.0821199E-2,3.3349115E-2,1.9646818E-2,9.152695E-3,-4.3773116E-4,-4.7253564E-2,-7.898092E-2,-1.126089E-2,-2.5907123E-2,2.8914334E-2,1.2287193E-2,5.136286E-3,-1.1165937E-2,5.8672458E-2,1.706688E-2,1.9546598E-2,-2.0192316E-2,6.707684E-2,1.1502154E-2,3.431085E-2,-2.6944933E-2,5.3264815E-2,-5.0707185E-3,2.7012294E-2,-1.3282151E-2,-4.792821E-3,-3.9436582E-2,-2.2784794E-2,-1.0547767E-1,3.274998E-2,2.5585676E-2,1.089826E-1,7.159073E-2,9.049482E-2,5.0830584E-2,-3.5459768E-2,-1.03663236E-1,4.0683556E-2,-5.1112544E-2,4.6804054E-3,-3.593284E-2,7.219504E-2,-1.1741711E-1],"split_indices":[16,5,5,5,6,2,2,7,2,2,9,11,1,6,1,19,8,11,3,12,0,4,1,7,5,5,5,8,3,6,3,9,9,0,19,18,7,0,2,2,19,3,3,7,11,3,2,0,5,3,7,18,7,9,0,0,9,12,0,3,12,11,9,0,0,0,0,0,0,0,0,0,0,0,0,0,0,0,0,0,0,0,0,0,0,0,0,0,0,0,0,0,0,0,0,0,0,0,0,0,0,0,0,0,0,0,0,0,0,0,0,0,0,0,0,0,0,0,0,0,0,0,0],"split_type":[1,1,1,1,1,1,1,1,1,1,0,1,1,1,1,1,0,1,1,1,0,1,1,1,1,1,1,0,1,1,1,0,0,0,1,1,1,0,1,1,1,1,1,1,1,1,1,0,1,1,1,1,1,0,0,0,0,1,0,1,1,1,0,0,0,0,0,0,0,0,0,0,0,0,0,0,0,0,0,0,0,0,0,0,0,0,0,0,0,0,0,0,0,0,0,0,0,0,0,0,0,0,0,0,0,0,0,0,0,0,0,0,0,0,0,0,0,0,0,0,0,0,0],"sum_hessian":[4.8855E4,4.476E3,4.4379E4,2.21E3,2.266E3,3.9045E4,5.334E3,5.66E2,1.644E3,4.26E2,1.84E3,1.8134E4,2.0911E4,8.49E2,4.485E3,3E2,2.66E2,1.226E3,4.18E2,2.99E2,1.27E2,1.289E3,5.51E2,1.3957E4,4.177E3,5.724E3,1.5187E4,5.6E2,2.89E2,2.074E3,2.411E3,1.71E2,1.29E2,1.29E2,1.37E2,2.66E2,9.6E2,1.32E2,2.86E2,1.51E2,1.48E2,6E1,6.7E1,2.64E2,1.025E3,2.74E2,2.77E2,4.71E3,9.247E3,7.08E2,3.469E3,2.453E3,3.271E3,1.3509E4,1.678E3,7E0,5.53E2,7.6E1,2.13E2,7.09E2,1.365E3,1.843E3,5.68E2,9.5E1,7.6E1,8.6E1,4.3E1,1.7E1,1.12E2,8.8E1,4.9E1,2.07E2,5.9E1,5.36E2,4.24E2,8.1E1,2.05E2,7.4E1,7.7E1,9.3E1,5.5E1,4.4E1,1.6E1,4.8E1,1.9E1,2.09E2,5.5E1,4.59E2,5.66E2,1.44E2,1.3E2,1.52E2,1.25E2,1.335E3,3.375E3,5.296E3,3.951E3,4.29E2,2.79E2,2.08E2,3.261E3,1.675E3,7.78E2,9.76E2,2.295E3,1.2352E4,1.157E3,1.344E3,3.34E2,2.88E2,2.65E2,4.7E1,2.9E1,3.9E1,1.74E2,5.94E2,1.15E2,1.003E3,3.62E2,2.99E2,1.544E3,5.2E1,5.16E2],"tree_param":{"num_deleted":"0","num_feature":"20","num_nodes":"123","size_leaf_vector":"1"}},{"base_weights":[1.378339E-5,3.0248206E-2,-5.0298604E-3,-4.3081332E-2,7.719336E-2,5.5957623E-3,-2.204084E-2,1.0431987E-1,-7.501438E-2,1.2436274E-1,-4.0002566E-2,1.0358103E-1,1.119434E-3,1.381341E-2,-3.7868153E-2,1.8228202E-1,-1.6009035E-2,-1.3239397E-2,-1.2219792E-1,2.883335E-1,1.1057127E-1,6.60081E-2,-5.883988E-2,2.0630811E-1,-4.45079E-2,6.5277465E-2,-4.8989896E-3,9.31713E-2,-1.9011825E-2,1.2150578E-1,-4.6466384E-2,2.0911768E-1,8.215452E-2,1.8147424E-1,-5.083224E-2,6.771909E-2,-5.107332E-2,-6.289241E-2,-1.8320297E-1,4.4526115E-1,2.09038E-1,1.2971212E-1,2.8808739E-2,1.09040275E-1,4.2892788E-2,1.3568671E-2,-9.807236E-2,2.4945804E-1,1.6432814E-1,5.370509E-2,-1.2514572E-1,1.1792897E-1,-2.771888E-1,-2.1498476E-3,-3.9425436E-1,2.0016149E-1,3.2678276E-2,2.5462897E-2,-9.2379E-2,2.9532635E-1,-3.9306857E-2,-7.8066196E-3,-6.8648376E-2,2.2174353E-2,6.687896E-2,8.123866E-2,2.0531347E-2,7.173702E-2,3.8014397E-2,-2.780894E-3,-2.383346E-2,3.8919844E-2,1.1139004E-2,1.3203952E-2,-2.5899163E-2,-1.5405574E-2,-3.488928E-2,-3.199475E-2,-6.6394776E-2,1.3945544E-1,1.020887E-1,7.916956E-2,4.608859E-2,6.123616E-2,3.3286992E-2,1.7634582E-2,-1.7477456E-2,4.98341E-2,2.3796756E-2,1.6283179E-2,-3.6893235E-4,2.2813343E-2,-1.7675735E-3,-2.439793E-2,-4.1906405E-2,6.0915727E-2,8.387755E-2,6.45379E-2,3.8176335E-2,2.7161432E-2,3.0405677E-4,-2.1510702E-2,-4.7645383E-2,3.9851524E-2,-2.2561757E-2,-5.260143E-2,-1.14659175E-1,4.380119E-3,-1.1333237E-2,-1.701991E-1,-1.10809036E-1,8.7666735E-2,4.9469393E-2,1.6744126E-2,-5.4622073E-2,1.281689E-2,-4.2402014E-2,-8.607205E-3,-3.913469E-2,1.0458605E-1,6.857546E-2,-1.8459389E-2,-5.4378035E-3,5.3213513E-3,-2.2838458E-2,-1.0796733E-2,-3.2263525E-2],"categories":[0,1,2,3,4,7,1,2,3,4,5,8,3,4,6,9,10,0,4,1,2,4,6,7,8,10,11,12,1,4,5,7,8,9,10,0,1,4,5,6,8,9,10,2,0,1,3,4,6,1,2,3,4,5,6,9,11,1,2,3,4,0,1,2,3,4,5,6,7,8,9,10,12,2,4,5,6,7,0,2,4,0,2,9,3,7,8,10,0,1,3,4,5,6,7,8,9,10,0,3,4,7,8,9,10,0,1,2,3,4,5,6,7,8,9,0,3,7,9,10,0,0,6,1,2,0,1,2,3,4,5,6,7,9,10,1,2,6,0,0,1,5,0,0,1,3,4,5,6,7,8,9,10,3,8,9,10,5,9,10,11,2,8,9,2,5,2,3,4,5,6,7,0,1,2,3,4,5,6,7,9,10,0,1,2,3,4,6,0,8,9,0,1,2,3,5,6,7,8,9,10,11,7,8,0,7,0,1,2,6,7,8,10,11,2,4,5,0,10,5,6,0,1,2,3,4,5,6,7,8,9,10,1,1,1,2,3,4,5,6,7,1,2,5,2,8],"categories_nodes":[0,2,3,4,5,6,7,8,10,11,12,13,15,16,17,18,19,20,21,22,23,24,25,26,27,28,29,30,31,32,34,36,37,38,39,40,41,42,43,44,45,46,49,50,51,52,53,55,56,57,59,61,62],"categories_segments":[0,6,12,17,19,28,35,43,44,49,57,61,73,78,81,84,88,98,105,115,120,121,123,124,125,135,138,139,142,143,153,157,161,164,166,172,182,188,191,202,203,204,206,214,217,218,219,221,232,233,234,241,244],"categories_sizes":[6,6,5,2,9,7,8,1,5,8,4,12,5,3,3,4,10,7,10,5,1,2,1,1,10,3,1,3,1,10,4,4,3,2,6,10,6,3,11,1,1,2,8,3,1,1,2,11,1,1,7,3,2],"default_left":[0,0,1,1,1,1,1,1,0,0,0,1,0,1,0,1,1,1,1,1,1,1,0,1,1,1,1,1,0,1,0,0,0,0,1,0,1,1,1,1,1,1,1,1,1,1,0,0,0,1,1,1,1,0,0,1,1,1,0,1,0,1,1,0,0,0,0,0,0,0,0,0,0,0,0,0,0,0,0,0,0,0,0,0,0,0,0,0,0,0,0,0,0,0,0,0,0,0,0,0,0,0,0,0,0,0,0,0,0,0,0,0,0,0,0,0,0,0,0,0,0,0,0,0,0,0,0],"id":9,"left_children":[1,3,5,7,9,11,13,15,17,19,21,23,25,27,29,31,33,35,37,39,41,43,45,47,49,51,53,55,57,59,61,63,65,67,69,71,73,75,77,79,81,83,85,87,89,91,93,95,97,99,101,103,105,107,109,111,113,115,117,119,121,123,125,-1,-1,-1,-1,-1,-1,-1,-1,-1,-1,-1,-1,-1,-1,-1,-1,-1,-1,-1,-1,-1,-1,-1,-1,-1,-1,-1,-1,-1,-1,-1,-1,-1,-1,-1,-1,-1,-1,-1,-1,-1,-1,-1,-1,-1,-1,-1,-1,-1,-1,-1,-1,-1,-1,-1,-1,-1,-1,-1,-1,-1,-1,-1,-1],"loss_changes":[7.4502845E0,2.4048952E1,7.5685816E0,1.2843733E1,2.354898E1,1.1304727E1,9.136327E0,4.5621324E0,6.5332804E0,6.8359833E0,2.4461613E0,1.7138733E1,9.518043E0,1.2846739E1,1.5310902E1,7.754812E-1,1.3296089E0,2.9806726E0,4.586872E0,2.8311825E0,4.382969E0,1.793428E-1,2.9528873E0,1.1636086E0,3.6656141E0,3.8150993E1,2.412153E1,9.332784E0,1.1386904E1,1.6000463E1,9.087784E0,4.1677094E-1,1.470694E-1,6.1247945E-2,1.9429484E-1,5.83235E-1,2.2264977E0,3.921721E-1,1.8028717E0,2.204895E-3,4.39744E-1,3.146679E0,1.3943808E0,9.537339E-2,6.134881E-2,4.4543654E-1,4.5834494E-1,3.9909935E-1,6.129379E-1,4.055332E-1,4.456997E-1,5.2881737E0,2.94903E0,1.3355693E1,4.7111702E-1,1.6431866E0,4.5959826E0,6.2621717E0,3.1894712E0,8.984623E-1,1.3916296E-1,6.7466927E0,8.550583E0,0E0,0E0,0E0,0E0,0E0,0E0,0E0,0E0,0E0,0E0,0E0,0E0,0E0,0E0,0E0,0E0,0E0,0E0,0E0,0E0,0E0,0E0,0E0,0E0,0E0,0E0,0E0,0E0,0E0,0E0,0E0,0E0,0E0,0E0,0E0,0E0,0E0,0E0,0E0,0E0,0E0,0E0,0E0,0E0,0E0,0E0,0E0,0E0,0E0,0E0,0E0,0E0,0E0,0E0,0E0,0E0,0E0,0E0,0E0,0E0,0E0,0E0,0E0,0E0],"parents":[2147483647,0,0,1,1,2,2,3,3,4,4,5,5,6,6,7,7,8,8,9,9,10,10,11,11,12,12,13,13,14,14,15,15,16,16,17,17,18,18,19,19,20,20,21,21,22,22,23,23,24,24,25,25,26,26,27,27,28,28,29,29,30,30,31,31,32,32,33,33,34,34,35,35,36,36,37,37,38,38,39,39,40,40,41,41,42,42,43,43,44,44,45,45,46,46,47,47,48,48,49,49,50,50,51,51,52,52,53,53,54,54,55,55,56,56,57,57,58,58,59,59,60,60,61,61,62,62],"right_children":[2,4,6,8,10,12,14,16,18,20,22,24,26,28,30,32,34,36,38,40,42,44,46,48,50,52,54,56,58,60,62,64,66,68,70,72,74,76,78,80,82,84,86,88,90,92,94,96,98,100,102,104,106,108,110,112,114,116,118,120,122,124,126,-1,-1,-1,-1,-1,-1,-1,-1,-1,-1,-1,-1,-1,-1,-1,-1,-1,-1,-1,-1,-1,-1,-1,-1,-1,-1,-1,-1,-1,-1,-1,-1,-1,-1,-1,-1,-1,-1,-1,-1,-1,-1,-1,-1,-1,-1,-1,-1,-1,-1,-1,-1,-1,-1,-1,-1,-1,-1,-1,-1,-1,-1,-1,-1],"split_conditions":[NaN,5.32E0,NaN,NaN,NaN,NaN,NaN,NaN,NaN,2.47E0,NaN,NaN,NaN,NaN,1.16E0,NaN,NaN,NaN,NaN,NaN,NaN,NaN,NaN,NaN,NaN,NaN,NaN,NaN,NaN,NaN,NaN,NaN,NaN,1.67E0,NaN,7.29E0,NaN,NaN,NaN,NaN,NaN,NaN,NaN,NaN,NaN,NaN,NaN,7.9E0,4.67E0,NaN,NaN,NaN,NaN,NaN,1.125E1,NaN,NaN,NaN,6.92E0,NaN,1.21E0,NaN,NaN,2.2174353E-2,6.687896E-2,8.123866E-2,2.0531347E-2,7.173702E-2,3.8014397E-2,-2.780894E-3,-2.383346E-2,3.8919844E-2,1.1139004E-2,1.3203952E-2,-2.5899163E-2,-1.5405574E-2,-3.488928E-2,-3.199475E-2,-6.6394776E-2,1.3945544E-1,1.020887E-1,7.916956E-2,4.608859E-2,6.123616E-2,3.3286992E-2,1.7634582E-2,-1.7477456E-2,4.98341E-2,2.3796756E-2,1.6283179E-2,-3.6893235E-4,2.2813343E-2,-1.7675735E-3,-2.439793E-2,-4.1906405E-2,6.0915727E-2,8.387755E-2,6.45379E-2,3.8176335E-2,2.7161432E-2,3.0405677E-4,-2.1510702E-2,-4.7645383E-2,3.9851524E-2,-2.2561757E-2,-5.260143E-2,-1.14659175E-1,4.380119E-3,-1.1333237E-2,-1.701991E-1,-1.10809036E-1,8.7666735E-2,4.9469393E-2,1.6744126E-2,-5.4622073E-2,1.281689E-2,-4.2402014E-2,-8.607205E-3,-3.913469E-2,1.0458605E-1,6.857546E-2,-1.8459389E-2,-5.4378035E-3,5.3213513E-3,-2.2838458E-2,-1.0796733E-2,-3.2263525E-2],"split_indices":[11,8,2,12,1,12,7,2,6,9,5,7,10,12,9,18,1,2,7,2,3,2,2,6,1,5,16,2,5,4,5,6,2,0,7,9,7,2,3,18,2,5,2,7,7,2,2,9,0,3,3,2,7,5,0,3,1,11,9,18,0,1,2,0,0,0,0,0,0,0,0,0,0,0,0,0,0,0,0,0,0,0,0,0,0,0,0,0,0,0,0,0,0,0,0,0,0,0,0,0,0,0,0,0,0,0,0,0,0,0,0,0,0,0,0,0,0,0,0,0,0,0,0,0,0,0,0],"split_type":[1,0,1,1,1,1,1,1,1,0,1,1,1,1,0,1,1,1,1,1,1,1,1,1,1,1,1,1,1,1,1,1,1,0,1,0,1,1,1,1,1,1,1,1,1,1,1,0,0,1,1,1,1,1,0,1,1,1,0,1,0,1,1,0,0,0,0,0,0,0,0,0,0,0,0,0,0,0,0,0,0,0,0,0,0,0,0,0,0,0,0,0,0,0,0,0,0,0,0,0,0,0,0,0,0,0,0,0,0,0,0,0,0,0,0,0,0,0,0,0,0,0,0,0,0,0,0],"sum_hessian":[4.8855E4,6.984E3,4.1871E4,2.726E3,4.258E3,2.5773E4,1.6098E4,4.85E2,2.241E3,3.036E3,1.222E3,1.125E3,2.4648E4,4.93E3,1.1168E4,2.94E2,1.91E2,9.71E2,1.27E3,2.34E2,2.802E3,1.84E2,1.038E3,6.64E2,4.61E2,2.113E3,2.2535E4,1.442E3,3.488E3,5.71E2,1.0597E4,2.31E2,6.3E1,2.8E1,1.63E2,3.09E2,6.62E2,6.45E2,6.25E2,7.7E1,1.57E2,2.27E3,5.32E2,6.3E1,1.21E2,3.65E2,6.73E2,3.25E2,3.39E2,2.08E2,2.53E2,1.832E3,2.81E2,2.2378E4,1.57E2,5.2E2,9.22E2,2.172E3,1.316E3,2.74E2,2.97E2,3.864E3,6.733E3,2.2E1,2.09E2,3E0,6E1,1.2E1,1.6E1,6.7E1,9.6E1,1.01E2,2.08E2,1.79E2,4.83E2,5.32E2,1.13E2,2.09E2,4.16E2,6.2E1,1.5E1,7.7E1,8E1,4.55E2,1.815E3,3.96E2,1.36E2,2E1,4.3E1,9.6E1,2.5E1,8.6E1,2.79E2,4.82E2,1.91E2,1.31E2,1.94E2,1.41E2,1.98E2,1.22E2,8.6E1,9.9E1,1.54E2,1.701E3,1.31E2,1.44E2,1.37E2,1.5222E4,7.156E3,1.7E1,1.4E2,1.42E2,3.78E2,8.33E2,8.9E1,1.969E3,2.03E2,4.93E2,8.23E2,1.5E2,1.24E2,1.44E2,1.53E2,2.813E3,1.051E3,3.661E3,3.072E3],"tree_param":{"num_deleted":"0","num_feature":"20","num_nodes":"127","size_leaf_vector":"1"}},{"base_weights":[2.084321E-5,3.0754374E-2,-4.635292E-3,5.5442933E-2,5.3945417E-3,-4.1596755E-2,-1.2893757E-3,6.6193245E-2,-4.207821E-2,2.0786991E-2,-8.313989E-2,-1.116682E-2,-1.0299464E-1,8.1644645E-3,-1.723697E-2,-5.322488E-2,7.4808E-2,-2.7085233E-3,-8.192013E-2,4.498502E-2,-1.232869E-2,7.087224E-2,-1.7984255E-1,1.10787295E-1,-4.041454E-2,-4.7038745E-2,-2.2779635E-1,1.2833816E-2,-6.78992E-2,9.363832E-3,-4.5494553E-2,-2.7824104E-2,-1.2989613E-1,2.8238654E-1,7.044588E-2,1.9442746E-2,-6.356296E-2,3.0367497E-2,-1.01812616E-1,6.529787E-2,-2.5542058E-2,-5.3921225E-4,-8.0676384E-2,9.722301E-2,8.196629E-3,-7.463908E-4,-2.0532364E-1,1.4746547E-1,-1.2035541E-1,-1.48004675E-2,-7.587644E-2,-6.9108784E-2,3.4241665E-2,-1.6166359E-1,-3.426732E-1,3.7507866E-2,-1.4960114E-3,-8.088943E-2,1.2694827E-2,1.7161468E-2,-1.7054023E-1,-2.0762866E-2,-1.2290707E-1,1.5570574E-3,-1.0733854E-2,-1.960025E-2,-4.693733E-2,9.245622E-2,5.200157E-2,2.599735E-2,1.1650331E-2,1.5790094E-2,4.053366E-3,-7.942583E-3,-2.8882358E-2,1.3834352E-2,3.6853584E-3,-2.269319E-2,-6.0294565E-2,6.135537E-2,1.6743654E-2,6.8965694E-3,-1.4453271E-2,5.4871086E-3,-7.577198E-3,-9.114725E-3,-3.9182596E-2,4.350393E-2,2.5019621E-2,8.5457675E-3,-1.1043886E-2,-5.5882383E-2,-9.676296E-2,-2.7202569E-2,4.9779493E-2,-1.472685E-2,-5.390917E-2,-1.8965868E-4,-1.0720136E-2,-1.3896588E-2,-3.2358836E-2,-8.499823E-3,-2.9700194E-2,5.2449595E-2,-1.1455508E-2,-1.39139965E-2,-5.70234E-2,-9.2059165E-2,-1.6512848E-1,2.6453316E-2,1.0299945E-3,8.770224E-3,-1.1697381E-2,-1.7598493E-2,-4.591237E-2,7.847584E-2,-1.51187945E-2,1.7560048E-2,-3.9658886E-3,1.8093215E-2,-6.8200886E-2,1.1700125E-2,-1.602212E-2,-2.2231016E-2,-7.023806E-2],"categories":[0,2,2,4,5,6,9,12,2,5,7,1,4,0,1,4,7,1,2,3,4,8,9,11,0,3,7,0,3,5,0,1,2,5,6,7,0,1,2,3,4,5,6,7,8,9,10,12,1,2,4,0,1,2,5,1,0,2,3,4,5,6,7,8,9,10,11,12,4,2,5,6,4,12,0,1,2,3,4,5,7,8,9,10,11,12,2,3,5,6,3,4,6,1,10,0,4,6,1,0,7,6,8,11,10,7,8,0,1,2,4,5,6,8,9,10,2,3,4,7,8,0,2,3,4,5,6,7,8,9,10,11,5,0,1,3,4,5,6,0,1,2,3,4,5,6,8,9,10,0,2,7,10,0,5,6,6,7,10,5,6,11,3,8,10,6,7,11,12,0,6,7,11,1,2,4,6,0,3,5,3,10,0,0,1,2,4,5,6,7,10,12,3,4,5,6,8,1],"categories_nodes":[0,1,3,4,5,6,7,8,9,10,11,13,14,15,16,17,18,19,21,22,23,24,25,26,27,28,29,30,31,32,33,34,35,36,37,39,40,41,42,45,46,48,49,50,51,52,53,55,56,57,58,59,61,62],"categories_segments":[0,2,8,11,13,17,24,25,27,30,36,48,51,55,56,68,69,72,74,86,90,92,93,94,95,98,99,101,104,105,107,116,121,132,133,139,149,153,154,156,157,158,159,162,165,169,170,173,177,180,182,183,192,197],"categories_sizes":[2,6,3,2,4,7,1,2,3,6,12,3,4,1,12,1,3,2,12,4,2,1,1,1,3,1,2,3,1,2,9,5,11,1,6,10,4,1,2,1,1,1,3,3,4,1,3,4,3,2,1,9,5,1],"default_left":[1,1,0,1,1,1,1,1,1,1,0,1,0,1,1,1,1,1,1,1,0,1,1,1,1,1,1,1,1,1,1,1,1,1,1,1,1,1,0,1,1,0,1,0,0,1,1,0,1,1,1,1,1,1,0,1,0,1,1,1,0,0,0,0,0,0,0,0,0,0,0,0,0,0,0,0,0,0,0,0,0,0,0,0,0,0,0,0,0,0,0,0,0,0,0,0,0,0,0,0,0,0,0,0,0,0,0,0,0,0,0,0,0,0,0,0,0,0,0,0,0,0,0,0,0],"id":10,"left_children":[1,3,5,7,9,11,13,15,17,19,21,23,25,27,29,31,33,35,37,39,41,43,45,47,49,51,53,55,57,59,61,63,65,67,69,71,73,75,77,79,81,83,85,87,-1,89,91,93,95,97,99,101,103,105,107,109,111,113,115,117,119,121,123,-1,-1,-1,-1,-1,-1,-1,-1,-1,-1,-1,-1,-1,-1,-1,-1,-1,-1,-1,-1,-1,-1,-1,-1,-1,-1,-1,-1,-1,-1,-1,-1,-1,-1,-1,-1,-1,-1,-1,-1,-1,-1,-1,-1,-1,-1,-1,-1,-1,-1,-1,-1,-1,-1,-1,-1,-1,-1,-1,-1,-1,-1],"loss_changes":[6.9914107E0,4.0242567E0,5.247139E0,3.417368E0,4.3244085E0,6.579121E0,5.866145E0,3.022359E0,5.0799286E-1,2.166561E0,7.012635E0,8.408046E0,8.138902E0,8.676914E0,1.0885424E1,3.8199264E-1,2.4584131E0,2.2230834E-1,3.627144E-1,2.2393987E0,9.201613E-1,2.0620322E-1,1.318717E0,3.883668E0,1.7255998E0,1.4500126E0,2.6871643E0,8.137935E0,1.4803472E0,1.046801E1,1.3441362E1,3.958206E-2,7.38067E-2,1.0413647E-1,1.3711138E0,2.311046E-2,5.0831735E-2,6.552322E-3,3.4032917E-1,1.5904722E0,3.8558796E-1,4.5425773E-1,4.179288E-1,6.2561035E-2,0E0,4.0058035E-2,5.048475E-1,1.7476778E0,2.5760895E-1,3.277082E-1,7.484393E-1,7.711785E-1,1.768247E0,7.4787426E-1,8.0567646E-1,1.4599425E1,1.67788E1,1.9428163E0,3.1066256E0,8.989061E0,4.078252E0,1.0386854E1,9.21014E0,0E0,0E0,0E0,0E0,0E0,0E0,0E0,0E0,0E0,0E0,0E0,0E0,0E0,0E0,0E0,0E0,0E0,0E0,0E0,0E0,0E0,0E0,0E0,0E0,0E0,0E0,0E0,0E0,0E0,0E0,0E0,0E0,0E0,0E0,0E0,0E0,0E0,0E0,0E0,0E0,0E0,0E0,0E0,0E0,0E0,0E0,0E0,0E0,0E0,0E0,0E0,0E0,0E0,0E0,0E0,0E0,0E0,0E0,0E0,0E0,0E0,0E0],"parents":[2147483647,0,0,1,1,2,2,3,3,4,4,5,5,6,6,7,7,8,8,9,9,10,10,11,11,12,12,13,13,14,14,15,15,16,16,17,17,18,18,19,19,20,20,21,21,22,22,23,23,24,24,25,25,26,26,27,27,28,28,29,29,30,30,31,31,32,32,33,33,34,34,35,35,36,36,37,37,38,38,39,39,40,40,41,41,42,42,43,43,45,45,46,46,47,47,48,48,49,49,50,50,51,51,52,52,53,53,54,54,55,55,56,56,57,57,58,58,59,59,60,60,61,61,62,62],"right_children":[2,4,6,8,10,12,14,16,18,20,22,24,26,28,30,32,34,36,38,40,42,44,46,48,50,52,54,56,58,60,62,64,66,68,70,72,74,76,78,80,82,84,86,88,-1,90,92,94,96,98,100,102,104,106,108,110,112,114,116,118,120,122,124,-1,-1,-1,-1,-1,-1,-1,-1,-1,-1,-1,-1,-1,-1,-1,-1,-1,-1,-1,-1,-1,-1,-1,-1,-1,-1,-1,-1,-1,-1,-1,-1,-1,-1,-1,-1,-1,-1,-1,-1,-1,-1,-1,-1,-1,-1,-1,-1,-1,-1,-1,-1,-1,-1,-1,-1,-1,-1,-1,-1,-1,-1],"split_conditions":[NaN,NaN,3.38E0,NaN,NaN,NaN,NaN,NaN,NaN,NaN,NaN,NaN,6.24E0,NaN,NaN,NaN,NaN,NaN,NaN,NaN,8.08E0,NaN,NaN,NaN,NaN,NaN,NaN,NaN,NaN,NaN,NaN,NaN,NaN,NaN,NaN,NaN,NaN,NaN,7.52E0,NaN,NaN,NaN,NaN,9.87E0,8.196629E-3,NaN,NaN,9E-1,NaN,NaN,NaN,NaN,NaN,NaN,8.22E0,NaN,NaN,NaN,NaN,NaN,1.4E0,NaN,NaN,1.5570574E-3,-1.0733854E-2,-1.960025E-2,-4.693733E-2,9.245622E-2,5.200157E-2,2.599735E-2,1.1650331E-2,1.5790094E-2,4.053366E-3,-7.942583E-3,-2.8882358E-2,1.3834352E-2,3.6853584E-3,-2.269319E-2,-6.0294565E-2,6.135537E-2,1.6743654E-2,6.8965694E-3,-1.4453271E-2,5.4871086E-3,-7.577198E-3,-9.114725E-3,-3.9182596E-2,4.350393E-2,2.5019621E-2,8.5457675E-3,-1.1043886E-2,-5.5882383E-2,-9.676296E-2,-2.7202569E-2,4.9779493E-2,-1.472685E-2,-5.390917E-2,-1.8965868E-4,-1.0720136E-2,-1.3896588E-2,-3.2358836E-2,-8.499823E-3,-2.9700194E-2,5.2449595E-2,-1.1455508E-2,-1.39139965E-2,-5.70234E-2,-9.2059165E-2,-1.6512848E-1,2.6453316E-2,1.0299945E-3,8.770224E-3,-1.1697381E-2,-1.7598493E-2,-4.591237E-2,7.847584E-2,-1.51187945E-2,1.7560048E-2,-3.9658886E-3,1.8093215E-2,-6.8200886E-2,1.1700125E-2,-1.602212E-2,-2.2231016E-2,-7.023806E-2],"split_indices":[19,12,8,16,5,2,3,4,2,1,11,12,9,11,1,2,12,1,3,12,0,12,3,11,1,6,3,1,6,7,7,3,7,2,7,3,3,1,0,7,2,6,3,0,0,1,2,9,3,7,7,12,2,12,9,5,5,2,2,12,0,2,2,0,0,0,0,0,0,0,0,0,0,0,0,0,0,0,0,0,0,0,0,0,0,0,0,0,0,0,0,0,0,0,0,0,0,0,0,0,0,0,0,0,0,0,0,0,0,0,0,0,0,0,0,0,0,0,0,0,0,0,0,0,0],"split_type":[1,1,0,1,1,1,1,1,1,1,1,1,0,1,1,1,1,1,1,1,0,1,1,1,1,1,1,1,1,1,1,1,1,1,1,1,1,1,0,1,1,1,1,0,0,1,1,0,1,1,1,1,1,1,0,1,1,1,1,1,0,1,1,0,0,0,0,0,0,0,0,0,0,0,0,0,0,0,0,0,0,0,0,0,0,0,0,0,0,0,0,0,0,0,0,0,0,0,0,0,0,0,0,0,0,0,0,0,0,0,0,0,0,0,0,0,0,0,0,0,0,0,0,0,0],"sum_hessian":[4.8855E4,6.427E3,4.2428E4,3.256E3,3.171E3,3.521E3,3.8907E4,2.933E3,3.23E2,2.702E3,4.69E2,2.355E3,1.166E3,2.4427E4,1.448E4,1.97E2,2.736E3,1.63E2,1.6E2,1.561E3,1.141E3,1.81E2,2.88E2,4.55E2,1.9E3,8.06E2,3.6E2,2.3015E4,1.412E3,7.459E3,7.021E3,1.49E2,4.8E1,5.5E1,2.681E3,1.2E2,4.3E1,2.4E1,1.36E2,1.212E3,3.49E2,9.74E2,1.67E2,1.12E2,6.9E1,3.6E1,2.52E2,3.93E2,6.2E1,1.104E3,7.96E2,6.34E2,1.72E2,2.3E2,1.3E2,8.455E3,1.456E4,1.216E3,1.96E2,7.15E3,3.09E2,5.322E3,1.699E3,2.9E1,1.2E2,1.5E1,3.3E1,4.3E1,1.2E1,1.771E3,9.1E2,1.7E1,1.03E2,2.1E1,2.2E1,1.2E1,1.2E1,1.09E2,2.7E1,7.6E1,1.136E3,1.11E2,2.38E2,5.53E2,4.21E2,8.4E1,8.3E1,2.3E1,8.9E1,2E1,1.6E1,2.19E2,3.3E1,2.8E1,3.65E2,2.9E1,3.3E1,6.59E2,4.45E2,4.15E2,3.81E2,2.69E2,3.65E2,5.8E1,1.14E2,4.6E1,1.84E2,1.13E2,1.7E1,3.399E3,5.056E3,8.002E3,6.558E3,9.31E2,2.85E2,3.9E1,1.57E2,3.027E3,4.123E3,6.1E1,2.48E2,1.88E3,3.442E3,1.182E3,5.17E2],"tree_param":{"num_deleted":"0","num_feature":"20","num_nodes":"125","size_leaf_vector":"1"}},{"base_weights":[2.8866189E-6,3.4690953E-3,-2.577431E-2,6.6719605E-3,-3.190222E-2,7.914134E-3,-4.8701562E-2,6.0400397E-2,2.4025813E-3,-5.5962037E-2,6.720517E-2,5.1676515E-2,-7.222966E-2,-1.575392E-2,-6.733131E-2,8.678146E-2,-4.7678288E-2,6.939636E-3,-3.9583653E-2,-8.823142E-2,2.3230836E-2,1.3953558E-1,4.8022058E-2,8.9862E-2,1.6093986E-2,-3.645026E-2,-4.3851383E-2,5.5247627E-2,-2.7253002E-2,-3.7918046E-2,-1.04895964E-1,1.376127E-1,5.368169E-2,-6.522302E-2,-3.127263E-2,1.2392416E-2,-2.938305E-2,3.3183243E-2,-7.2845936E-2,1.4553363E-2,-1.4115734E-1,1.1565471E-1,2.2961695E-3,1.4219587E-1,-3.6930878E-2,5.017561E-2,-1.5703173E-1,1.0558732E-1,6.951116E-2,3.080245E-2,-1.0574299E-1,3.9417807E-2,-6.0878266E-2,2.1578467E-2,4.4130545E-2,3.6587287E-2,-3.0804273E-2,1.8036341E-2,-6.441617E-2,-1.9929673E-1,-8.8654555E-2,4.2193398E-2,-6.779674E-2,2.1325596E-2,-6.35951E-3,-1.7020619E-2,-2.170013E-2,-1.500057E-3,-1.2967579E-2,7.9408E-3,-2.4390366E-4,-2.608112E-2,-4.192434E-3,-2.0782795E-2,1.4117999E-2,1.2847779E-2,-2.6411792E-2,2.0053525E-2,-7.089315E-3,-2.7319597E-2,-7.1555294E-2,4.999391E-2,2.1008268E-2,7.3081315E-3,-1.2938676E-2,4.654392E-2,3.8623244E-2,1.644773E-2,4.2238445E-3,-6.0567353E-2,1.0089818E-2,3.6171082E-2,2.0604393E-2,2.4653852E-2,1.5984295E-2,1.4138665E-2,4.7690626E-3,-2.0396722E-2,-4.1813277E-2,1.9173779E-2,5.1202234E-3,-1.1093939E-2,-5.4362394E-2,1.6612059E-2,1.14406645E-2,1.8512573E-2,-9.49284E-3,-4.191692E-3,-1.4837422E-2,1.0670187E-2,-2.0037005E-3,-1.5438472E-2,-5.071276E-2,-3.3768293E-2,-7.048702E-2,-1.9969927E-2,-4.0471688E-2],"categories":[1,2,7,0,1,3,5,0,1,2,3,0,2,4,5,6,9,11,0,0,1,3,4,0,1,2,3,4,5,7,0,1,2,3,4,5,6,7,9,10,5,4,5,6,11,0,1,2,3,4,5,6,7,8,9,10,12,1,4,5,0,2,3,5,6,8,9,10,1,0,1,3,4,5,6,7,9,10,0,0,0,3,6,10,0,1,2,3,4,5,6,7,8,9,11,3,5,6,2,3,7,10,2,8,7,6,3,10,11,2,4,6,8,9,12,0,0,0,1,2,3,4,6,0,6,0,2,0,1,2,3,4,5,6,7,8,9,10,12,3,4,6,0,1,2,3,4,5,0,2,3,4,5,6,7,8,1,2,3,4,5,6,7,0,1,2,4,5,6,7,8,9,11,0,1,2,3,4,5,6,7,9,10,6,0,1,3,4,5,6,3,6,0,1,2,3,4,6,7,8,10,11,3,3,11],"categories_nodes":[0,2,3,5,6,7,8,9,10,12,13,15,17,18,19,20,21,22,23,24,25,27,28,29,31,32,33,34,35,36,37,38,39,40,41,42,43,45,47,48,49,50,51,52,55,57,58,59],"categories_segments":[0,3,7,11,12,18,19,23,30,40,41,45,57,60,68,69,78,79,80,81,82,84,95,98,102,104,105,106,109,115,116,117,123,125,127,139,142,148,156,163,173,183,184,190,191,192,202,203],"categories_sizes":[3,4,4,1,6,1,4,7,10,1,4,12,3,8,1,9,1,1,1,1,2,11,3,4,2,1,1,3,6,1,1,6,2,2,12,3,6,8,7,10,10,1,6,1,1,10,1,2],"default_left":[1,0,1,0,0,1,1,1,1,1,0,0,1,1,0,1,0,1,0,0,0,1,1,1,1,1,0,1,1,1,0,1,1,1,1,1,1,0,0,1,1,1,0,1,0,1,0,1,1,1,1,1,1,0,0,1,0,1,1,1,0,0,0,0,0,0,0,0,0,0,0,0,0,0,0,0,0,0,0,0,0,0,0,0,0,0,0,0,0,0,0,0,0,0,0,0,0,0,0,0,0,0,0,0,0,0,0,0,0,0,0,0,0,0,0,0,0],"id":11,"left_children":[1,3,5,7,9,11,13,15,17,19,21,23,25,27,29,31,33,35,37,39,41,43,45,47,49,51,-1,53,55,57,59,61,63,65,67,69,71,73,75,77,79,81,83,85,-1,87,89,91,93,95,97,99,101,-1,103,105,107,109,111,113,115,-1,-1,-1,-1,-1,-1,-1,-1,-1,-1,-1,-1,-1,-1,-1,-1,-1,-1,-1,-1,-1,-1,-1,-1,-1,-1,-1,-1,-1,-1,-1,-1,-1,-1,-1,-1,-1,-1,-1,-1,-1,-1,-1,-1,-1,-1,-1,-1,-1,-1,-1,-1,-1,-1,-1,-1],"loss_changes":[4.365331E0,4.879141E0,4.473258E0,9.058579E0,8.530754E0,8.231819E0,2.1141148E0,8.292663E0,6.9694924E0,7.3567944E0,9.631772E-1,2.0611153E0,2.1878633E0,1.0188056E0,2.427905E0,3.9246216E0,1.6231287E-1,6.539896E0,8.63838E0,1.1126812E1,1.6134101E0,1.1951423E-1,2.5252235E-1,2.2691727E-1,1.4135884E0,1.0402508E0,0E0,2.9092252E-2,2.4439144E-1,1.8337622E0,1.4634047E0,1.0471153E0,1.8481197E0,1.2493372E-2,9.30492E-2,5.336787E0,3.8209271E0,1.5956773E0,4.3077526E0,1.3913027E0,6.562193E0,3.46627E-1,6.835974E-1,5.2855015E-3,0E0,9.1379166E-2,5.8108762E-2,2.1898651E-1,6.182766E-2,1.7032927E-1,9.846008E-2,7.391235E-2,1.2125942E0,0E0,5.100265E-3,9.965221E-2,3.1862664E-1,1.7268431E-1,1.1284752E0,4.0966558E-1,8.348613E-1,0E0,0E0,0E0,0E0,0E0,0E0,0E0,0E0,0E0,0E0,0E0,0E0,0E0,0E0,0E0,0E0,0E0,0E0,0E0,0E0,0E0,0E0,0E0,0E0,0E0,0E0,0E0,0E0,0E0,0E0,0E0,0E0,0E0,0E0,0E0,0E0,0E0,0E0,0E0,0E0,0E0,0E0,0E0,0E0,0E0,0E0,0E0,0E0,0E0,0E0,0E0,0E0,0E0,0E0,0E0,0E0],"parents":[2147483647,0,0,1,1,2,2,3,3,4,4,5,5,6,6,7,7,8,8,9,9,10,10,11,11,12,12,13,13,14,14,15,15,16,16,17,17,18,18,19,19,20,20,21,21,22,22,23,23,24,24,25,25,27,27,28,28,29,29,30,30,31,31,32,32,33,33,34,34,35,35,36,36,37,37,38,38,39,39,40,40,41,41,42,42,43,43,45,45,46,46,47,47,48,48,49,49,50,50,51,51,52,52,54,54,55,55,56,56,57,57,58,58,59,59,60,60],"right_children":[2,4,6,8,10,12,14,16,18,20,22,24,26,28,30,32,34,36,38,40,42,44,46,48,50,52,-1,54,56,58,60,62,64,66,68,70,72,74,76,78,80,82,84,86,-1,88,90,92,94,96,98,100,102,-1,104,106,108,110,112,114,116,-1,-1,-1,-1,-1,-1,-1,-1,-1,-1,-1,-1,-1,-1,-1,-1,-1,-1,-1,-1,-1,-1,-1,-1,-1,-1,-1,-1,-1,-1,-1,-1,-1,-1,-1,-1,-1,-1,-1,-1,-1,-1,-1,-1,-1,-1,-1,-1,-1,-1,-1,-1,-1,-1,-1,-1],"split_conditions":[NaN,1.026E1,NaN,NaN,1.404E1,NaN,NaN,NaN,NaN,NaN,NaN,1.026E1,NaN,NaN,8.22E0,NaN,4.13E0,NaN,NaN,NaN,NaN,NaN,NaN,NaN,NaN,NaN,-4.3851383E-2,NaN,NaN,NaN,9.29E0,NaN,NaN,NaN,NaN,NaN,NaN,NaN,NaN,NaN,NaN,NaN,NaN,NaN,-3.6930878E-2,NaN,1.47E1,NaN,NaN,NaN,NaN,NaN,NaN,2.1578467E-2,3.38E0,NaN,4.16E0,NaN,NaN,NaN,1.679E1,4.2193398E-2,-6.779674E-2,2.1325596E-2,-6.35951E-3,-1.7020619E-2,-2.170013E-2,-1.500057E-3,-1.2967579E-2,7.9408E-3,-2.4390366E-4,-2.608112E-2,-4.192434E-3,-2.0782795E-2,1.4117999E-2,1.2847779E-2,-2.6411792E-2,2.0053525E-2,-7.089315E-3,-2.7319597E-2,-7.1555294E-2,4.999391E-2,2.1008268E-2,7.3081315E-3,-1.2938676E-2,4.654392E-2,3.8623244E-2,1.644773E-2,4.2238445E-3,-6.0567353E-2,1.0089818E-2,3.6171082E-2,2.0604393E-2,2.4653852E-2,1.5984295E-2,1.4138665E-2,4.7690626E-3,-2.0396722E-2,-4.1813277E-2,1.9173779E-2,5.1202234E-3,-1.1093939E-2,-5.4362394E-2,1.6612059E-2,1.14406645E-2,1.8512573E-2,-9.49284E-3,-4.191692E-3,-1.4837422E-2,1.0670187E-2,-2.0037005E-3,-1.5438472E-2,-5.071276E-2,-3.3768293E-2,-7.048702E-2,-1.9969927E-2,-4.0471688E-2],"split_indices":[11,8,5,14,0,13,3,5,10,11,2,8,3,12,9,12,0,2,2,10,2,5,13,15,2,3,0,12,1,2,9,3,16,12,7,12,4,6,5,5,5,12,5,1,0,2,0,18,7,2,1,1,2,0,8,12,8,7,7,7,9,0,0,0,0,0,0,0,0,0,0,0,0,0,0,0,0,0,0,0,0,0,0,0,0,0,0,0,0,0,0,0,0,0,0,0,0,0,0,0,0,0,0,0,0,0,0,0,0,0,0,0,0,0,0,0,0],"split_type":[1,0,1,1,0,1,1,1,1,1,1,0,1,1,0,1,0,1,1,1,1,1,1,1,1,1,0,1,1,1,0,1,1,1,1,1,1,1,1,1,1,1,1,1,0,1,0,1,1,1,1,1,1,0,0,1,0,1,1,1,0,0,0,0,0,0,0,0,0,0,0,0,0,0,0,0,0,0,0,0,0,0,0,0,0,0,0,0,0,0,0,0,0,0,0,0,0,0,0,0,0,0,0,0,0,0,0,0,0,0,0,0,0,0,0,0,0],"sum_hessian":[4.8855E4,4.3065E4,5.79E3,3.949E4,3.575E3,2.345E3,3.445E3,2.906E3,3.6584E4,2.877E3,6.98E2,1.517E3,8.28E2,1.245E3,2.2E3,2.336E3,5.7E2,3.3017E4,3.567E3,2.044E3,8.33E2,1.45E2,5.53E2,7.31E2,7.86E2,5.59E2,2.69E2,1.73E2,1.072E3,1.235E3,9.65E2,9.2E2,1.416E3,2.74E2,2.96E2,2.8708E4,4.309E3,1.119E3,2.448E3,6.95E2,1.349E3,1.53E2,6.8E2,1.44E2,1E0,5.48E2,5E0,4.1E2,3.21E2,7.02E2,8.4E1,1.36E2,4.23E2,6.7E1,1.06E2,5.6E1,1.016E3,3.97E2,8.38E2,1.4E2,8.25E2,9.13E2,7E0,1.149E3,2.67E2,1.29E2,1.45E2,9.3E1,2.03E2,1.3895E4,1.4813E4,9.09E2,3.4E3,1.33E2,9.86E2,2.84E2,2.164E3,2.93E2,4.02E2,8.92E2,4.57E2,7.1E1,8.2E1,4.58E2,2.22E2,6.8E1,7.6E1,4.85E2,6.3E1,4E0,1E0,2.9E2,1.2E2,1.78E2,1.43E2,3.34E2,3.68E2,4.1E1,4.3E1,6.4E1,7.2E1,3.54E2,6.9E1,3.4E1,7.2E1,4.1E1,1.5E1,5.35E2,4.81E2,2.32E2,1.65E2,7.47E2,9.1E1,4.2E1,9.8E1,5.6E2,2.65E2],"tree_param":{"num_deleted":"0","num_feature":"20","num_nodes":"117","size_leaf_vector":"1"}},{"base_weights":[-4.5794495E-6,2.0207653E-2,-3.0667356E-3,8.6497456E-2,1.5250824E-2,1.9767506E-2,-6.6425744E-3,1.9095862E-1,6.2506296E-2,1.900149E-2,-1.3170645E-1,7.008542E-2,-1.9019824E-2,-2.8026255E-3,-3.292789E-2,3.0203867E-1,7.533193E-2,9.218759E-2,3.7558284E-2,1.9245115E-1,1.731743E-2,-3.5267902E-4,-1.7355055E-1,1.08599484E-1,-2.3499507E-2,-4.9929652E-2,4.6193264E-2,1.0333719E-2,-1.5280262E-2,1.1338736E-1,-4.9887154E-2,3.8134176E-1,6.5984204E-2,1.2506862E-1,2.8807329E-2,9.556232E-2,2.9985726E-2,4.5536872E-2,4.5055165E-3,2.1007209E-1,3.540213E-2,2.7067987E-2,-2.3555735E-3,6.1738063E-3,-2.6189148E-2,-1.480746E-1,-6.851685E-2,2.851533E-1,9.628809E-2,1.1429002E-2,-4.9744237E-2,-1.5324716E-1,-3.4983058E-2,1.9818309E-1,2.0668495E-2,2.1660151E-2,-4.025574E-2,-5.8402997E-3,-4.9200684E-2,6.2123228E-2,1.889204E-1,1.0136763E-1,-5.9426222E-2,1.4403786E-1,8.736522E-2,5.748914E-2,2.703179E-2,1.5349741E-2,-3.4972809E-3,2.9682815E-2,2.2126835E-2,1.4652908E-4,1.2767295E-2,1.9459661E-2,5.844887E-3,9.983245E-3,-4.818707E-3,7.054449E-2,4.6923887E-2,1.1172932E-2,-1.7018425E-3,5.645384E-3,-8.097488E-3,-3.8437964E-3,-1.0996722E-2,-3.19798E-2,-5.438507E-2,9.935321E-2,1.9011183E-2,3.1722356E-2,-9.237809E-4,2.3346547E-2,1.3200545E-3,-7.968975E-3,-2.2799602E-2,-9.9508595E-3,-6.7448124E-2,-1.592499E-2,1.3647935E-2,9.5391534E-2,3.0851748E-2,1.1361454E-2,-1.6872518E-2,3.2321822E-2,4.473901E-3,-1.8336401E-4,-4.50071E-2,9.801723E-3,-5.5629085E-3,-5.608828E-3,-3.4650937E-2,5.7148382E-2,1.7486516E-2,6.3987724E-2,3.5741273E-2,4.3930735E-2,1.68631E-2,-7.7796127E-3,-3.0197546E-2],"categories":[0,2,0,1,2,5,6,7,0,1,2,3,4,7,4,3,4,6,9,10,6,0,1,2,3,4,6,7,8,9,10,11,0,1,2,3,4,6,7,8,9,10,11,0,2,3,4,5,6,7,8,9,10,11,12,3,5,6,0,4,1,2,3,4,5,7,8,0,1,3,4,5,6,8,9,10,0,1,2,3,4,5,6,7,9,10,0,1,2,3,4,5,6,7,8,9,11,0,1,2,3,4,5,6,7,8,9,10,0,1,2,4,5,6,8,9,10,1,2,3,4,5,6,7,6,7,0,1,3,4,5,6,7,8,9,10,1,3,4,5,6,0,0,1,2,3,4,5,7,4,5,6,2,3,4,11,0,0,1,2,3,4,5,6,7,8,9,11,0,1,2,3,4,5,6,7,9,10,3,0,1,2,3,4,5,7,8,9,10,11,12,0,1,2,3,4,5,7,8,9,10,11,0,1,2,3,2,0,7,6,0,1,2,3,7,8,9,11,0,1,2,3,4,5,6,7,8,9,4,10,2,5,0,1,2,3,4,6,0,1,4,5,6,9,10,1,2,6,7,8,10,11,12,4,5,0,1,2,3,5,0,1,2,3,4,6,7,9,10,0,1,2,3,4,6,7,8,9,10,11,5],"categories_nodes":[0,1,2,4,5,6,7,8,9,10,11,13,14,15,16,18,19,20,21,22,23,24,25,26,27,28,30,31,33,34,37,39,41,42,44,45,48,49,50,51,53,54,55,56,57,58,60,61,62],"categories_segments":[0,2,8,14,15,20,21,32,43,55,58,60,67,76,86,97,108,117,124,125,126,136,141,142,149,152,156,157,168,178,179,191,202,206,207,209,210,218,228,230,232,238,245,253,255,256,260,269,280],"categories_sizes":[2,6,6,1,5,1,11,11,12,3,2,7,9,10,11,11,9,7,1,1,10,5,1,7,3,4,1,11,10,1,12,11,4,1,2,1,8,10,2,2,6,7,8,2,1,4,9,11,1],"default_left":[1,0,0,0,1,1,1,1,1,1,1,1,0,1,0,1,1,0,1,1,1,1,1,0,0,1,1,1,1,0,1,1,0,1,1,0,0,1,0,1,0,1,0,0,1,1,0,0,1,1,1,1,0,1,0,1,1,1,1,0,1,1,0,0,0,0,0,0,0,0,0,0,0,0,0,0,0,0,0,0,0,0,0,0,0,0,0,0,0,0,0,0,0,0,0,0,0,0,0,0,0,0,0,0,0,0,0,0,0,0,0,0,0,0,0,0,0,0,0],"id":12,"left_children":[1,3,5,7,9,11,13,15,17,19,21,23,25,27,29,31,33,35,37,39,41,43,45,47,49,51,53,55,57,59,61,63,-1,65,67,69,71,73,75,77,-1,79,81,-1,83,85,-1,87,89,91,93,95,97,99,101,103,105,107,109,111,113,115,117,-1,-1,-1,-1,-1,-1,-1,-1,-1,-1,-1,-1,-1,-1,-1,-1,-1,-1,-1,-1,-1,-1,-1,-1,-1,-1,-1,-1,-1,-1,-1,-1,-1,-1,-1,-1,-1,-1,-1,-1,-1,-1,-1,-1,-1,-1,-1,-1,-1,-1,-1,-1,-1,-1,-1,-1],"loss_changes":[3.0239072E0,2.1108391E0,3.4645257E0,1.1083102E0,3.2997065E0,1.1213837E1,3.702681E0,1.0432839E0,2.6681626E-1,1.7007766E0,8.188994E-1,9.0169935E0,6.5433354E0,5.246934E0,1.1608679E1,1.8954897E-1,9.3584225E-2,3.1980276E-2,5.253771E-2,4.866934E-2,1.1086074E0,2.054892E-2,1.2405062E-1,3.8242054E0,6.697517E-1,3.3950667E0,4.046108E0,8.936203E0,5.2565584E0,1.870121E0,6.052925E0,3.8236618E-2,0E0,2.927652E-2,2.1405352E-2,4.275441E-3,3.6875913E-3,7.981378E-2,2.4205636E-2,2.2424698E-2,0E0,1.2874694E0,9.9995464E-1,0E0,1.9104499E-3,9.086335E-2,0E0,1.1528568E0,1.5577335E0,1.461898E-1,2.5176895E-1,2.3819933E0,2.8064435E0,1.6804681E0,1.1862934E0,7.3988113E0,1.2415299E1,6.2841024E0,7.2263594E0,1.3215077E-1,3.079357E-1,4.9852252E-1,5.442833E0,0E0,0E0,0E0,0E0,0E0,0E0,0E0,0E0,0E0,0E0,0E0,0E0,0E0,0E0,0E0,0E0,0E0,0E0,0E0,0E0,0E0,0E0,0E0,0E0,0E0,0E0,0E0,0E0,0E0,0E0,0E0,0E0,0E0,0E0,0E0,0E0,0E0,0E0,0E0,0E0,0E0,0E0,0E0,0E0,0E0,0E0,0E0,0E0,0E0,0E0,0E0,0E0,0E0,0E0,0E0,0E0],"parents":[2147483647,0,0,1,1,2,2,3,3,4,4,5,5,6,6,7,7,8,8,9,9,10,10,11,11,12,12,13,13,14,14,15,15,16,16,17,17,18,18,19,19,20,20,21,21,22,22,23,23,24,24,25,25,26,26,27,27,28,28,29,29,30,30,31,31,33,33,34,34,35,35,36,36,37,37,38,38,39,39,41,41,42,42,44,44,45,45,47,47,48,48,49,49,50,50,51,51,52,52,53,53,54,54,55,55,56,56,57,57,58,58,59,59,60,60,61,61,62,62],"right_children":[2,4,6,8,10,12,14,16,18,20,22,24,26,28,30,32,34,36,38,40,42,44,46,48,50,52,54,56,58,60,62,64,-1,66,68,70,72,74,76,78,-1,80,82,-1,84,86,-1,88,90,92,94,96,98,100,102,104,106,108,110,112,114,116,118,-1,-1,-1,-1,-1,-1,-1,-1,-1,-1,-1,-1,-1,-1,-1,-1,-1,-1,-1,-1,-1,-1,-1,-1,-1,-1,-1,-1,-1,-1,-1,-1,-1,-1,-1,-1,-1,-1,-1,-1,-1,-1,-1,-1,-1,-1,-1,-1,-1,-1,-1,-1,-1,-1,-1,-1],"split_conditions":[NaN,NaN,NaN,7.09E0,NaN,NaN,NaN,NaN,NaN,NaN,NaN,NaN,5.59E0,NaN,NaN,NaN,NaN,1.555E1,NaN,NaN,NaN,NaN,NaN,NaN,NaN,NaN,NaN,NaN,NaN,5.14E0,NaN,NaN,6.5984204E-2,NaN,NaN,1.003E1,8.99E0,NaN,9.87E0,NaN,3.540213E-2,NaN,NaN,6.1738063E-3,NaN,NaN,-6.851685E-2,1.84E0,NaN,NaN,NaN,NaN,4.17E0,NaN,NaN,NaN,NaN,NaN,NaN,3.65E0,NaN,NaN,NaN,1.4403786E-1,8.736522E-2,5.748914E-2,2.703179E-2,1.5349741E-2,-3.4972809E-3,2.9682815E-2,2.2126835E-2,1.4652908E-4,1.2767295E-2,1.9459661E-2,5.844887E-3,9.983245E-3,-4.818707E-3,7.054449E-2,4.6923887E-2,1.1172932E-2,-1.7018425E-3,5.645384E-3,-8.097488E-3,-3.8437964E-3,-1.0996722E-2,-3.19798E-2,-5.438507E-2,9.935321E-2,1.9011183E-2,3.1722356E-2,-9.237809E-4,2.3346547E-2,1.3200545E-3,-7.968975E-3,-2.2799602E-2,-9.9508595E-3,-6.7448124E-2,-1.592499E-2,1.3647935E-2,9.5391534E-2,3.0851748E-2,1.1361454E-2,-1.6872518E-2,3.2321822E-2,4.473901E-3,-1.8336401E-4,-4.50071E-2,9.801723E-3,-5.5629085E-3,-5.608828E-3,-3.4650937E-2,5.7148382E-2,1.7486516E-2,6.3987724E-2,3.5741273E-2,4.3930735E-2,1.68631E-2,-7.7796127E-3,-3.0197546E-2],"split_indices":[19,11,11,9,5,12,5,3,3,12,3,1,8,2,2,2,7,9,3,2,11,1,2,2,5,4,11,7,3,0,15,7,0,2,2,0,8,12,0,7,0,10,6,0,2,1,0,0,7,2,7,3,0,5,2,12,1,4,5,8,3,7,2,0,0,0,0,0,0,0,0,0,0,0,0,0,0,0,0,0,0,0,0,0,0,0,0,0,0,0,0,0,0,0,0,0,0,0,0,0,0,0,0,0,0,0,0,0,0,0,0,0,0,0,0,0,0,0,0],"split_type":[1,1,1,0,1,1,1,1,1,1,1,1,0,1,1,1,1,0,1,1,1,1,1,1,1,1,1,1,1,0,1,1,0,1,1,0,0,1,0,1,0,1,1,0,1,1,0,0,1,1,1,1,0,1,1,1,1,1,1,0,1,1,1,0,0,0,0,0,0,0,0,0,0,0,0,0,0,0,0,0,0,0,0,0,0,0,0,0,0,0,0,0,0,0,0,0,0,0,0,0,0,0,0,0,0,0,0,0,0,0,0,0,0,0,0,0,0,0,0],"sum_hessian":[4.8855E4,6.427E3,4.2428E4,4.46E2,5.981E3,5.744E3,3.6684E4,8.2E1,3.64E2,5.833E3,1.48E2,2.5E3,3.244E3,3.2009E4,4.675E3,4.1E1,4.1E1,1.65E2,1.99E2,5.5E1,5.778E3,3.6E1,1.12E2,1.771E3,7.29E2,2.201E3,1.043E3,1.5593E4,1.6416E4,4.85E2,4.19E3,1.9E1,2.2E1,1.9E1,2.2E1,1.56E2,9E0,1.6E2,3.9E1,4.3E1,1.2E1,3.863E3,1.915E3,2E1,1.6E1,7.9E1,3.3E1,1.14E2,1.657E3,3.13E2,4.16E2,2.77E2,1.924E3,1.49E2,8.94E2,1.2741E4,2.852E3,1.2843E4,3.573E3,2.9E2,1.95E2,2.48E2,3.942E3,7E0,1.2E1,5E0,1.4E1,1.4E1,8E0,1.32E2,2.4E1,3E0,6E0,9.1E1,6.9E1,1.6E1,2.3E1,2.7E1,1.6E1,2.947E3,9.16E2,1.03E3,8.85E2,8E0,8E0,3.7E1,4.2E1,9.4E1,2E1,1.513E3,1.44E2,2.9E1,2.84E2,2.22E2,1.94E2,1.04E2,1.73E2,1.571E3,3.53E2,6.5E1,8.4E1,7.31E2,1.63E2,9.25E2,1.1816E4,2.096E3,7.56E2,3.185E3,9.658E3,2.448E3,1.125E3,7E0,2.83E2,1.43E2,5.2E1,1.23E2,1.25E2,2.176E3,1.766E3],"tree_param":{"num_deleted":"0","num_feature":"20","num_nodes":"119","size_leaf_vector":"1"}},{"base_weights":[1.3617965E-5,1.8985211E-3,-2.6951957E-2,-1.6286046E-3,2.8998477E-2,-1.3991044E-2,-1.8348795E-1,2.5235526E-2,-7.4216393E-3,3.8034346E-2,-1.1104922E-1,6.676424E-2,-3.2865245E-2,5.2771706E-2,-1.9919392E-1,-4.7563326E-2,3.453039E-2,4.1970387E-2,-1.0566585E-2,1.1574876E-1,2.0697366E-2,1.74364E-2,-1.5200306E-1,7.452421E-2,-3.0531626E-2,9.134625E-3,-8.633194E-2,9.6370146E-2,1.6975628E-2,-2.561061E-1,-1.663156E-1,5.1926915E-2,-5.7609674E-2,5.6059275E-2,-1.35468235E-2,8.185209E-2,2.4030806E-2,2.2910947E-2,-1.4473076E-2,1.3863827E-1,4.0703904E-2,3.418149E-2,-2.0506103E-2,7.9786554E-2,-1.0087966E-2,-1.1093332E-1,-2.177588E-1,1.1230883E-1,5.7323515E-2,3.348659E-2,-7.5403474E-2,2.6733132E-2,-2.6923079E-2,-2.1371352E-2,-1.2828398E-1,3.151661E-2,6.6388254E-3,2.3429204E-2,-5.8924505E-3,-8.179267E-2,-1.2081763E-3,-5.045188E-2,1.6006976E-2,2.2936704E-2,1.6465598E-3,-1.4752001E-2,-3.9793275E-2,2.7458934E-2,4.4958936E-3,1.2680911E-2,-8.812901E-3,1.6348617E-2,3.3516567E-2,4.3415323E-2,4.6677976E-3,5.681313E-2,2.0797022E-3,-3.422554E-3,-2.866891E-2,5.0098214E-2,2.2305999E-2,-1.428281E-2,2.0910982E-2,-2.813747E-2,1.2948802E-2,9.576332E-3,-1.2399235E-2,3.4023088E-3,2.7872585E-2,2.4654483E-2,-8.262591E-3,-4.04329E-3,-4.6865612E-2,-3.199115E-2,-8.343126E-2,4.8752047E-2,3.1694703E-2,2.408471E-2,9.264087E-3,2.201261E-2,-1.7285923E-3,-3.0323377E-2,6.8235723E-3,1.2950414E-2,-4.6594967E-3,-5.3047347E-3,-2.7385797E-2,1.5766377E-2,-1.1525517E-2,-2.757505E-2,-6.531422E-2,8.263433E-3,-8.0697204E-4,-4.1880524E-3,1.5364495E-3,1.6667802E-2,-1.30445305E-2],"categories":[0,0,1,3,9,0,1,2,3,4,5,6,7,5,0,1,2,3,5,6,0,1,2,3,4,6,2,3,5,11,0,1,2,3,5,6,1,6,10,0,1,2,3,4,6,2,4,5,10,2,4,5,6,0,1,2,3,4,5,6,9,0,1,2,3,4,5,6,8,9,10,1,2,4,6,7,8,0,3,0,1,2,3,4,5,6,7,9,10,2,3,5,2,11,4,1,2,3,4,5,6,7,11,1,3,0,1,2,5,6,7,2,6,0,1,2,3,0,2,3,4,5,6,7,8,9,10,11,0,2,0,2,3,4,5,0,2,6,1,6,10,11,8,0,1,3,2,3,5,1,2,3,4,5,6,8,9,10,0,7,4,2],"categories_nodes":[2,3,4,5,6,8,9,10,11,12,13,15,16,17,19,20,21,22,23,24,25,26,27,28,31,33,34,35,36,37,38,39,41,44,45,46,48,49,51,53,54,57,60],"categories_segments":[0,1,2,5,13,14,20,26,30,36,39,45,49,53,61,71,77,78,79,89,92,94,95,102,103,105,111,113,117,128,129,130,135,136,138,142,143,146,148,149,158,160,161],"categories_sizes":[1,1,3,8,1,6,6,4,6,3,6,4,4,8,10,6,1,1,10,3,2,1,7,1,2,6,2,4,11,1,1,5,1,2,4,1,3,2,1,9,2,1,1],"default_left":[0,0,1,0,1,0,1,0,0,1,1,0,1,1,0,1,1,1,0,1,1,1,1,1,1,1,1,1,1,0,0,1,0,1,1,0,1,1,1,1,0,0,0,0,1,1,1,0,1,1,0,1,0,0,1,0,0,1,0,0,1,0,0,0,0,0,0,0,0,0,0,0,0,0,0,0,0,0,0,0,0,0,0,0,0,0,0,0,0,0,0,0,0,0,0,0,0,0,0,0,0,0,0,0,0,0,0,0,0,0,0,0,0,0,0,0,0],"id":13,"left_children":[1,3,5,7,9,11,13,15,17,19,21,23,25,27,29,31,33,35,37,39,41,43,45,47,49,51,53,55,57,59,61,63,65,67,69,71,73,75,77,79,81,83,85,87,89,91,93,95,97,99,101,103,105,107,109,-1,-1,111,113,-1,115,-1,-1,-1,-1,-1,-1,-1,-1,-1,-1,-1,-1,-1,-1,-1,-1,-1,-1,-1,-1,-1,-1,-1,-1,-1,-1,-1,-1,-1,-1,-1,-1,-1,-1,-1,-1,-1,-1,-1,-1,-1,-1,-1,-1,-1,-1,-1,-1,-1,-1,-1,-1,-1,-1,-1,-1],"loss_changes":[2.4832795E0,4.364934E0,6.473521E0,6.288521E0,6.659238E0,4.497035E0,9.1591835E-1,4.851907E0,5.1637874E0,6.6547775E0,1.6812217E0,4.243276E-1,5.3700047E0,2.333451E-2,3.8590622E-1,8.1459665E-1,6.5805655E0,1.4218006E0,4.0873265E0,1.5420408E0,2.245851E0,1.3466448E-1,6.293812E-1,3.302214E-1,1.2317486E-1,8.5103244E-1,2.8641982E0,2.1887645E-3,1.6138642E-3,3.453021E-1,6.935835E-2,8.5011065E-2,4.6064425E-1,6.3957806E0,1.7391814E0,4.9808645E-1,1.4025221E0,8.685909E0,6.9535794E0,1.2453489E0,5.4625666E-1,3.503815E0,1.0898237E0,2.0501807E-2,9.083949E-2,6.643057E-1,5.8726597E-1,3.6655188E-2,2.1486473E-1,2.8603176E-2,6.529687E-2,6.2652135E-1,2.6007757E-1,5.237494E-1,2.058218E0,0E0,0E0,9.3405414E-4,3.3806948E-4,0E0,1.6814418E-2,0E0,0E0,0E0,0E0,0E0,0E0,0E0,0E0,0E0,0E0,0E0,0E0,0E0,0E0,0E0,0E0,0E0,0E0,0E0,0E0,0E0,0E0,0E0,0E0,0E0,0E0,0E0,0E0,0E0,0E0,0E0,0E0,0E0,0E0,0E0,0E0,0E0,0E0,0E0,0E0,0E0,0E0,0E0,0E0,0E0,0E0,0E0,0E0,0E0,0E0,0E0,0E0,0E0,0E0,0E0,0E0],"parents":[2147483647,0,0,1,1,2,2,3,3,4,4,5,5,6,6,7,7,8,8,9,9,10,10,11,11,12,12,13,13,14,14,15,15,16,16,17,17,18,18,19,19,20,20,21,21,22,22,23,23,24,24,25,25,26,26,27,27,28,28,29,29,30,30,31,31,32,32,33,33,34,34,35,35,36,36,37,37,38,38,39,39,40,40,41,41,42,42,43,43,44,44,45,45,46,46,47,47,48,48,49,49,50,50,51,51,52,52,53,53,54,54,57,57,58,58,60,60],"right_children":[2,4,6,8,10,12,14,16,18,20,22,24,26,28,30,32,34,36,38,40,42,44,46,48,50,52,54,56,58,60,62,64,66,68,70,72,74,76,78,80,82,84,86,88,90,92,94,96,98,100,102,104,106,108,110,-1,-1,112,114,-1,116,-1,-1,-1,-1,-1,-1,-1,-1,-1,-1,-1,-1,-1,-1,-1,-1,-1,-1,-1,-1,-1,-1,-1,-1,-1,-1,-1,-1,-1,-1,-1,-1,-1,-1,-1,-1,-1,-1,-1,-1,-1,-1,-1,-1,-1,-1,-1,-1,-1,-1,-1,-1,-1,-1,-1,-1],"split_conditions":[2.742E1,1.898E1,NaN,NaN,NaN,NaN,NaN,1.48E0,NaN,NaN,NaN,NaN,NaN,NaN,1.026E1,NaN,NaN,NaN,1.71E0,NaN,NaN,NaN,NaN,NaN,NaN,NaN,NaN,NaN,NaN,1.322E1,1.47E1,NaN,5.77E0,NaN,NaN,NaN,NaN,NaN,NaN,NaN,5.67E0,NaN,6.85E0,4.75E0,NaN,NaN,NaN,1.404E1,NaN,NaN,1.571E1,NaN,8.45E0,NaN,NaN,3.151661E-2,6.6388254E-3,NaN,1.151E1,-8.179267E-2,NaN,-5.045188E-2,1.6006976E-2,2.2936704E-2,1.6465598E-3,-1.4752001E-2,-3.9793275E-2,2.7458934E-2,4.4958936E-3,1.2680911E-2,-8.812901E-3,1.6348617E-2,3.3516567E-2,4.3415323E-2,4.6677976E-3,5.681313E-2,2.0797022E-3,-3.422554E-3,-2.866891E-2,5.0098214E-2,2.2305999E-2,-1.428281E-2,2.0910982E-2,-2.813747E-2,1.2948802E-2,9.576332E-3,-1.2399235E-2,3.4023088E-3,2.7872585E-2,2.4654483E-2,-8.262591E-3,-4.04329E-3,-4.6865612E-2,-3.199115E-2,-8.343126E-2,4.8752047E-2,3.1694703E-2,2.408471E-2,9.264087E-3,2.201261E-2,-1.7285923E-3,-3.0323377E-2,6.8235723E-3,1.2950414E-2,-4.6594967E-3,-5.3047347E-3,-2.7385797E-2,1.5766377E-2,-1.1525517E-2,-2.757505E-2,-6.531422E-2,8.263433E-3,-8.0697204E-4,-4.1880524E-3,1.5364495E-3,1.6667802E-2,-1.30445305E-2],"split_indices":[9,9,5,6,12,2,3,0,5,1,3,5,12,1,8,7,5,2,0,2,7,19,12,2,3,7,5,18,7,0,0,19,9,11,1,14,7,4,2,5,8,6,0,8,1,7,2,0,19,19,0,2,8,2,2,0,0,2,0,0,1,0,0,0,0,0,0,0,0,0,0,0,0,0,0,0,0,0,0,0,0,0,0,0,0,0,0,0,0,0,0,0,0,0,0,0,0,0,0,0,0,0,0,0,0,0,0,0,0,0,0,0,0,0,0,0,0],"split_type":[0,0,1,1,1,1,1,0,1,1,1,1,1,1,0,1,1,1,0,1,1,1,1,1,1,1,1,1,1,0,0,1,0,1,1,1,1,1,1,1,0,1,0,0,1,1,1,0,1,1,0,1,0,1,1,0,0,1,0,0,1,0,0,0,0,0,0,0,0,0,0,0,0,0,0,0,0,0,0,0,0,0,0,0,0,0,0,0,0,0,0,0,0,0,0,0,0,0,0,0,0,0,0,0,0,0,0,0,0,0,0,0,0,0,0,0,0],"sum_hessian":[4.8855E4,4.5664E4,3.191E3,4.0406E4,5.258E3,2.948E3,2.43E2,7.167E3,3.3239E4,4.94E3,3.18E2,5.58E2,2.39E3,1.5E1,2.28E2,8.11E2,6.356E3,1.989E3,3.125E4,9E2,4.04E3,7.7E1,2.41E2,5.17E2,4.1E1,1.339E3,1.051E3,6E0,9E0,8.1E1,1.47E2,7.4E1,7.37E2,4.39E3,1.966E3,6.16E2,1.373E3,3.265E3,2.7985E4,6.89E2,2.11E2,3.044E3,9.96E2,2.3E1,5.4E1,1.5E2,9.1E1,1.6E2,3.57E2,1.7E1,2.4E1,9E2,4.39E2,4.13E2,6.38E2,5E0,1E0,7E0,2E0,7.6E1,5E0,1.46E2,1E0,4.8E1,2.6E1,6.64E2,7.3E1,2.355E3,2.035E3,4.34E2,1.532E3,3.23E2,2.93E2,8.9E1,1.284E3,2.85E2,2.98E3,2.6967E4,1.018E3,4.77E2,2.12E2,5.2E1,1.59E2,1.99E2,2.845E3,2.83E2,7.13E2,4E0,1.9E1,8E0,4.6E1,4.8E1,1.02E2,3.3E1,5.8E1,1.6E1,1.44E2,1.9E2,1.67E2,8E0,9E0,1.9E1,5E0,6.48E2,2.52E2,3.85E2,5.4E1,7.7E1,3.36E2,4.55E2,1.83E2,6E0,1E0,1E0,1E0,2E0,3E0],"tree_param":{"num_deleted":"0","num_feature":"20","num_nodes":"117","size_leaf_vector":"1"}},{"base_weights":[9.550604E-6,5.732386E-3,-6.4671244E-3,6.807592E-2,-4.670655E-4,3.2804564E-3,-5.3479727E-2,1.4636828E-1,3.5832953E-2,8.404398E-3,-3.562439E-2,9.501354E-3,-9.905288E-2,-4.3892995E-2,-2.8862992E-1,2.248589E-1,2.2939643E-2,4.8702106E-2,-2.62169E-1,1.9195098E-2,-2.1492513E-2,-5.9076035E-3,-5.8521267E-2,2.6720623E-2,-3.9399406E-3,-3.646032E-2,-2.1604937E-1,-2.4057444E-2,-1.2354528E-1,-2.3221244E-1,-1.0022788E-1,3.27397E-1,1.9572528E-1,8.508281E-2,3.7300857E-3,8.3054096E-2,-1.7081812E-2,-5.007525E-2,-3.2314762E-1,2.2643471E-2,-5.858424E-2,3.01404E-2,-4.207897E-2,1.3862696E-2,-3.0204454E-2,-4.002167E-2,-1.1614345E-1,4.3451343E-2,-1.6645988E-2,-9.820423E-4,-9.910684E-2,5.4114754E-3,-8.077516E-2,-2.6604578E-1,-7.389891E-2,-9.5192554E-5,-6.1159555E-2,-7.8249864E-2,-3.1653306E-1,-7.108555E-2,-3.639434E-2,1.2282959E-1,7.650831E-2,6.478552E-2,3.663392E-2,3.6664195E-2,7.1264636E-3,5.4776375E-3,-2.0963337E-2,3.4149136E-2,3.3229955E-3,2.5521659E-3,-1.5060342E-2,-8.567381E-2,-1.3272582E-1,8.686816E-3,-5.510167E-3,-4.364577E-3,-4.0642727E-2,5.3106304E-3,3.914542E-2,6.354116E-4,-1.9550106E-2,1.1098137E-2,-6.9355883E-4,-5.6108953E-3,-1.8618412E-2,3.1056782E-2,-1.3376167E-2,-2.7336698E-2,-5.9999757E-2,1.9328283E-2,-1.5215917E-2,6.5029985E-3,-1.3051088E-2,8.3502075E-3,-2.9798122E-3,-1.7042812E-2,-3.904165E-2,2.4627255E-2,-4.2919174E-4,-1.6468119E-2,-4.5405723E-2,-7.246282E-2,-1.3086855E-1,-2.9588506E-2,1.5792182E-2,1.0349884E-2,-7.45965E-3,-5.0675347E-3,-2.5023598E-2,